[[    0     0     0     0     0     0     0     0     0     0]
 [    0     0     0     0     0     0     0     0     0     0]
 [    0     0     0     0     0     0     0     0     0     0]
 [    0     0     0     0     0     0     0     0     0     0]
 [    0     0     0     0     0     0     0     0     0     0]
 [    0     0     0     0     0     0     0     0     0     0]
 [    0     0     0     0     0     0     0     0     0     0]
 [    0     0     0     0     0     0     0     0     0     0]
 [    0     0     0     0     0     0     0     0     0     0]
 [    0     0     0     0     0     0     0     0     0     0]
 [    0     0     0     0     0     0     0     0     0     0]
 [    0     0     0     0     0     0     0     0     0     0]
 [    0     0     0     0     0     0     0     0     0     0]
 [    0     0     0     0     0     0     0     0     0     0]
 [    0     0     0     0     0     0     0     0     0     0]
 [    0     0     0     0     0     0     0     0     0     0]
 [    0     0     0     0     0     0     0     0     0     0]
 [    0     0     0     0     0     0     0     0     0     0]
 [    0     0     0     0     0     0     0     0     0     0]
 [    0     0     0     0     0     0     0     0     0     0]
 [    0     0     0     0     0     0     0     0     0     0]
 [    0     0     0     0     0     0     0     0     0     0]
 [    0     0     0     0     0     0     0     0     0     0]
 [    0     0     0     0     0     0     0     0     0     0]
 [    0     0     0     0     0     0     0     0     0     0]
 [    0     0     0     0     0     0     0     0     0     0]
 [    0     0     0     0     0     0     0     0     0     0]
 [    0     0     0     0     0     0     0     0     0     0]
 [    0     0     0     0     0     0     0     0     0     0]
 [    0     0     0     0     0     0     0     0     0     0]
 [    0     0     0     0     0     0     0     0     0     0]
 [    0     0     0     0     0     0     0     0     0     0]
 [    0     0     0     0     0     0     0     0     0     0]
 [    0     0     0     0   -15     0    15     0     0     0]
 [    0     0     0     0  -207     0   207     0     0     0]
 [    0     0     0     0  -496     0   492     0     0     0]
 [    0     0   -69     0  -349     0   419     0     0     0]
 [    0     0    -7     0  -425     0   494    -5     0     0]
 [   -4     0   -56     0  -186     0   333     0     0     0]
 [  216     0  -237     0  -286     0   368    -2     0   -25]
 [  533    -5  -205    -2  -570    -2   526   -89     0   -95]
 [  213   -16   -60    -2  -190     0    85   -20    -3   -19]
 [    0    65    37    -6    -5    -5  -144     0   -26     0]
 [  147   214   264    -4  -841    -4   222     0     0   -93]
 [  553   -87   691     0 -1033    -6   219     0    -1  -229]
 [  318   -25    -4     0  -365    -5   308     0    -5  -123]
 [    0     0   -88     0   -18  -144   286     0    -2     0]
 [    0     0   -23     0  -490   -74   638     0     0     0]
 [    0     0     0     0  -532   -12   560     0     0    -2]
 [    0     0     0     0  -243     0   243     0     0     0]
 [    0     0     0     0  -399     0   399     0     0     0]
 [    0     0     0     0  -276     0   276     0     0     0]
 [    0     0     0     0     0     0     0     0     0     0]
 [    0     0     0     0     0     0     0     0     0     0]
 [    0     0     0     0     0     0     0     0     0     0]
 [    0     0     0     0     0     0     0     0     0     0]
 [    0     0     0     0     0     0     0     0     0     0]
 [    0     0     0     0     0     0     0     0     0     0]
 [    0     0     0     0     0     0     0     0     0     0]
 [   24     0     0     0   -24    -9     9     0     0     0]
 [   11     0     0     0   -10     0     0     0     0     0]
 [    0     0     6    -7   -18     0    19     0     0     0]
 [ -167     0    59   -77  -216     0   480     0     0     0]
 [ -191     0    65   -65  -698     0  1057    -1     0     0]
 [ -148  -157   269     0  -898    -1  1164     0     0     0]
 [ -101  -413  1333   -17  -973   -24   611    -7    -9   -19]
 [ -245  -210   662    91 -1427  -413  1979   -68   -63   -40]
 [ -722  -186   971   123 -1004  -946  1668  -147  -114   -44]
 [ -529    38   451   612 -1601  -706  1799   -99   -93   -88]
 [ -782  1208  -524   124  -486  -463  1370   -36  -194   -70]
 [-1239  1032   511  -188  -303  -503   942   -71  -153   -32]
 [-1169  2207   859  -748  -456    13   524  -126  -136   -25]
 [ -886  1591   774  -382 -1216   386   330   -94  -302   -77]
 [ -740   716    15  -622  -228   735  1163   -14  -275   -13]
 [ -372   255    16  -689  -438   773   582     0  -165   -42]
 [ -263   690  -405  -298  -495   756   803     0  -442   -40]
 [ -321     2   183   -17  -849    11  1373     0   -33    -3]
 [ -119   -79   247   -48  -640  -737  1573     0  -109    -1]
 [  -64   -34   -40   -40  -617  -652  1602     0   -12     0]
 [  -50     0    -4     0  -439  -361   889     0   -33     0]
 [   -6     0   248     0  -113   -74  -107     0   -21     0]
 [    0     0   116     0     0     0  -114     0     0     0]
 [    0     0     0     0     0     0     0     0     0     0]
 [    0     0     0     0     0     0     0     0     0     0]
 [    0     0     0     0     0     0     0     0     0     0]
 [    0     0     0     0     0     0     0     0     0     0]
 [    0    15     0     0     0     0     0     0   -12     0]
 [   50     3     0     0   -49    -3    14     0    -2     0]
 [  -60     0     7   -30   -25   178  -101     0     0     0]
 [ -538   -56   153   885   -31  -309    52     0   -17     0]
 [ -891   -18   227   562  -687  -149  1268    -1  -108     0]
 [-1171  -156   345  1093  -702  -105  1398  -122  -171     0]
 [ -356  -370   803  1486 -2071  -174  1383  -415    89    -5]
 [ -705  -400  2718   681 -2660   -38   690  -165   251   -83]
 [ -163  -459  1125  1091 -1213    56  1424  -615   227  -225]
 [  431 -1315  1524  1489 -1399  -383   835 -1029   -28  -307]
 [ -677   122  1328  2498 -3000   555    85  -418   147  -456]
 [ 1794   239  1715   202 -3721   813  1092  -605   379  -873]
 [    7   101  1083  1473 -2056  -227  -279  -562  -338 -1181]
 [  244  -584   437  1804 -1897  1008  1211  -439   354 -1301]
 [  370  1274  1174   706 -1116  -331    45  -415   146 -1027]
 [ -727   119  1046   394  -843   731   231   -61   713  -309]
 [ -258 -1194   127  1545 -1123   790   950   -31  1359   277]
 [ -653  -469    -3  1169   153  1243   975   -92    38   -90]
 [ -352  -398  -415  2235  -428  1064    -1   -80   -48   -69]
 [ -856  -867  -555  -154  -155  1379   791  -130   773    -9]
 [ -287  -700  -136 -1235   508  1038   782   -71  1212     0]
 [  175  -237  -465  -872   409  -196  1339     0   581     0]
 [  146  -270   118  -203  -232   291   532     0  -339     0]
 [  158  -124   104     0     0   862 -1001     0     0     0]
 [    0  -127     0     0     0   121    59     0   -23     0]
 [    0     0     0     0     0     0     0     0     0     0]
 [    0     0     0     0     0     0     0     0     0     0]
 [    0     0     0     0     0     0     0     0     0     0]
 [    0    46     0     6     0    -7   -11     0   -29     0]
 [  -20    13   -42   150     0   -40   -43     0   -11     0]
 [    0    40  -299   309    74  -234    41    -9   -44     0]
 [ -957   581   558  1608   200 -1330   334  -587  -491   -14]
 [-1289   433  1822  1390  -115  -562   145  -688  -860    -5]
 [ -764   381  1187  1610   199   652   127 -1029  -266  -133]
 [  153   697   612  1209 -1216 -1167  1062  -982   651  -480]
 [  732   363  1064   793  -874  -270   148 -1312   751  -562]
 [  603  1151   897  1406 -1419   520   225 -1976   530  -452]
 [ 1816 -1113  1053  1665  -553   -18  -237 -1840   326 -1066]
 [ -688   249   417  -272   103   403   148  -552   941  -803]
 [  129   612   499  1655   395  -282   682 -1287   -60  -396]
 [ -398  -763   456   849 -1445  -834  -645 -1904   946 -1019]
 [ 1079   -87   -53    71  -591  1351   315 -1131   614  -699]
 [-1312  1017  1193  1726    59   -62  -676 -1353  1054  -332]
 [ 1356  -226   160   952   998  1223  1501 -1079  1114  -206]
 [  142   297   430  1039  -432  1307   -48  -806   939  -488]
 [  147   -94  -396   196  1183   768  -216  -302   166 -1304]
 [  203   -67   185   265  1541  -894   294  -367   813  -536]
 [  327  -122  -869  -650  1842   908   281   256    11  -951]
 [  244  -448  -476   427  1880   642  1600  -249  1367  -476]
 [ -887  -740 -1072 -1458  1950  1009  1689    -5  -258   -10]
 [-1055 -1469  -839   -26  1130  1921  -200     0   984    -6]
 [  -13  -952    51     0   -91  1139  -720     0   963     0]
 [    0  -238   -11     0  -181   233  -104     0   246     0]
 [    0  -179   -11     0     0   -74   229     0    12     0]
 [    0     0     0     0     0     0     0     0     0     0]
 [    0     0     0     0     0     0     0     0     0     0]
 [   -8     8    22   -16     0    -4     9     0    -7     0]
 [  -73     0   141   735    39   -67  -569  -185    -8    -1]
 [   -2   164   261  1112    26  -948   183  -410  -169     0]
 [-1201  1386  -304   900   422  -904  -981   877 -1109   -43]
 [ -616  1045   590   948  -621  -708  -270   606   -80  -333]
 [  421  -484   551   779  -240   246  -373   141   340  -117]
 [  592 -1601  -139   723   223    55   678  1520   569  -357]
 [ -236 -1044  1318   356   704   113  -279   623   249  -941]
 [ 1351 -1152    10   664  -652  1453   214   311   420    20]
 [  375   144   562   611   661   561  -403  -397   906   773]
 [  158 -1057  1591  1216   353   714  -484   420  1356  1311]
 [  181   172  -525   -58  -494   473 -1813   456   299   245]
 [ -357   622  1626   596   826  -485   297   279  1224   509]
 [ 1332   677   217   765  -417   340  -651 -1284   303   164]
 [ -220   126  1001  1292   490  1026   277   123   709  -675]
 [ 1189 -1198   399  -374  -787  -114   395 -1337   415  -880]
 [ -320   -40   792   256   134   112  -348  -303  -206    91]
 [  516   118   201   489   369    68   905 -1520   459    11]
 [ -190   838   692   552  1345  1237   776 -1730   817   379]
 [ -311   632   241  -241  -664   611   845  -892   649  -771]
 [  391  1079    63   620   102   110  -534  -607  -231 -1201]
 [ -965   447   259 -1097  1619  1272  2010  -323  -275  -515]
 [-1612  -118  -915   -33   694  1473   674   -11  1510  -112]
 [ -318 -1227   -82   -39  -518  1530    98   -10  1479   -77]
 [ -111  -521   -27     0  -185   296   469     0   265    -2]
 [ -122  -253   -14     0     0    64   325     0   -18     0]
 [    0     0     0     0     0     0     0     0     0     0]
 [    0     0    -1    17     0     0     0     0     0   -18]
 [  -55  -186    26  -186   -19   -15   -15   399   -12   -22]
 [    0   -87    -8   545  -261  -635  -302   970   -61   -44]
 [ -102    98   184   521   355     3   452   981  -665  -240]
 [    3    87    40   703   740   177  -213  1624  -192 -1745]
 [ -307  -297  -631    56  -141  -250  -922  1723 -1174  -201]
 [  686  -861   790   475  -304   165   641   695   643 -1051]
 [ -440  -788   426   635   151  -119  -518   930   111  -411]
 [  -82 -2076 -1291    68   838 -1248    -5   -30  -496   416]
 [-1028   623  1133   818  -712    43 -1338  1182  -580  -224]
 [ 1652  -173   917  1324   196    27  -854  1754   862  1559]
 [-1112  -486  -272  -118 -1208    19   165   867   153  -132]
 [ 1492 -1959  -222   -59 -1246  -609 -1299    33  -367   606]
 [ 1113  -603  -441   362  -483   618  -273  -165  -138  1269]
 [ -744  -765   425   580 -1383  -312  -392   165   818   137]
 [  599  -633   882   795  -803  -141   -84  1337   589  1479]
 [  852  -173   521   414  -105   959  -818   682  1281  1382]
 [ 1446   161  -570   833   -97   614  -693   466  -125  1207]
 [  415  -848  -107  -493  -450   601  -728    48   951  -187]
 [ -292 -1568  -774  1023 -1452   686    76  -228   106   -84]
 [ -297   350  -116  -406   188  -765 -1871   621  -720   773]
 [ 1988   342  -295   683   216  1092   117  -381   279  -498]
 [  938   421 -1325   -91  1348   269   473 -1013  1085 -1276]
 [-2559   714  -416    68   420  2061   305    65   215  -359]
 [-2076  -554    20  -184  -578   919   -60  -111  1441   -49]
 [-1108  -151   -30     0   785  1202  -344   -42   789  -167]
 [ -411     0     0     0    -1   591  -102     0   -14     0]
 [    0     0     0     0     0     0     0     0     0     0]
 [    0   -93   -28   207     0    -1     0   107   -40  -139]
 [    0  -480   457  -469   -20  -135   -59   725   -25   -71]
 [    0  -119   309  -206   212  -765  -489  1689  -187  -350]
 [ -479   296  1607  1203   669 -2044   499   216   221  -966]
 [ -554  -834  1378  1462  1326  -199   618  -568  -216 -1835]
 [  473 -1051   921   510    61   -23 -2040   204     1  -527]
 [  162  -731  -674   138  1512   764   247   908  -684  -562]
 [-2497 -1794   617  -113  -429  1181  -216   795  1236   341]
 [  157  -467   893   620  -973  -106  -948  -491   208   -46]
 [ -249   490 -1180  -349  -402    18   -43   572  -206    25]
 [ -708  -202   244 -1213  -578   268  -102   221   481  -268]
 [ -324   248  -867  1452  -436  -299  -498   954 -1597   949]
 [  837  -312  1578  -831  -945   -36  -598  -341  1104   936]
 [  438    20   143  1199   245   757   422   747  -351  1172]
 [  126     0   345  1876  -364   479  -548  1008  1484  1199]
 [  217   296  1224    65   292   745  -394   776   478  1662]
 [ 2059  -407  -507   332   420   128   492  1643  -874   869]
 [ -579 -1577  -617   105  -233   131  -508   878   575   255]
 [  336   398   472  -298 -1480  -467 -1180  -444  -548   -19]
 [ -236   762  -795    46   943   486  -801  1099   424   932]
 [  291   440   354  -397  -349   181   788   602  1122   155]
 [ -155  -182   943  -892   714  1129  -209   508   467  -113]
 [  666  -154 -2240  -104   635   686 -1098   277    40   150]
 [ -744 -1711 -1455   454  1126  1225  1411    -3  1804  -410]
 [-2030  -836  -190  -119  -483  2629  -329  -184  -265    28]
 [ -999   -58   -65    -1   897    21  -270   -16   798   -53]
 [  -42    -2   -27     0    -2   229  -125     0    25    -1]
 [  168     0   -11     0    -6     0     0  -145     0   -34]
 [    0   -75   -28  -134  -106     0     0   582   -35  -141]
 [   66  -401   222  -419   431  -121   -50   665   -74  -287]
 [  311   -62  -256   171   171  -725  -473  2068   219 -1356]
 [ -568    84  1375  1341   382 -2540   527   754   820  -851]
 [ -441  -381   -38  -158   613   123   -92   688   372 -1117]
 [  241 -1344  -460   186   837    79 -1240  1490  1375   -15]
 [  -74   -57    95  -404  -455 -1310  -466  1191  -669  -509]
 [  203 -1173  -843   347  -364   623  -683   -48     5   231]
 [  751 -1672   360  -943   888  -307     8  1064  -205  -244]
 [ -219  -215  -251   272  -421  1279  -765   -65   121   -32]
 [  740  -556   867   797  -680   -45 -1028   445   -31  -316]
 [  461  -583   137   653   152   727   -83  1145  2009  -564]
 [  240  1106   396   436  -836   -96   271  1167  -358   717]
 [ 1071   375   146  1239  -687   297  -484   636   267  2047]
 [ 1015   130  -105  -955    76  -401  -666   378   317   210]
 [ 1527 -1197  -391   836 -1507   319  -980  1040   694   479]
 [  592   761    19   869  -647   413 -1513   -43   772    94]
 [  322  -217  -382   242  -274    55  -732  1138   463  1133]
 [  -36   106   263   921   390  -475 -2519   666   -64  -479]
 [ 1139  -563  -105   218  -499  1524  -858   484   131  -650]
 [  716 -1335  -245  -305   308  -101  -866  -118  -906   279]
 [  311  -783  -101   878  -209  -136 -1712   598   689   148]
 [ 1514  -931  1334 -1175   221  2248 -1954   527  1462    21]
 [  143 -2489 -2027 -1030  -866  2925 -1440  -251  1318    37]
 [-2277  -659  -571  -172  1447  2055  -723  -562  1740   124]
 [ -855   -47  -148     0  -114  1372  -510    -4  1104   -41]
 [   -3    -2   -41     0     0   -64   -11     0   105    -3]
 [    0     0     0     0   -10     0     0    34     0   -20]
 [    0     0   -30  -183   -61     0     0   503   -37  -204]
 [  122  -291  -291   515   375   -28   -98   528  -244  -407]
 [  284   -41   243   944 -1120  -835  -301  1554   -54  -682]
 [ -122  -387   222   813 -1269 -1299  1160  1469  -406 -1188]
 [ -402 -1289  1842  1431     2 -1636 -1032   275   126   811]
 [ -789  -918 -1236    -1    32    59  -373  1278   179   789]
 [ -536   748  -385    48  -631 -1239  -335   219   309   179]
 [ -332    22   217   -72   345   815  -901   145    70   553]
 [ -187 -1455   -92  1357  -203  -706    -3  1167   874    45]
 [ 1147  -559   381  -907  -118   -75  -462  -776   464   430]
 [ -669  -550  -257  -973  -218   675  -311    75  -761   253]
 [  173   848  -570  -596   608  -326  -564  1554  -466   287]
 [  703  -490    72   253   451   651 -1513   890   833   755]
 [ 1261   235  1140   516  -698  -537   -20   708  -135  -128]
 [ -147  1479  1007  1572 -1215  -752  -959  1666 -1636   824]
 [  400    18   167  -225   -61 -1114  -885   566  -282   -11]
 [ 2106   381   860   793   819   215 -1268  1414   131   303]
 [  510    67  1072  1061   609   403 -1200  1337   920   367]
 [ 1779  -210  -105   249  -321   755  -505   702   498   685]
 [  203  -914   661   425   479  -598  -437  -327   293   137]
 [ -947 -1047 -1098  1133  -987   682  -919   326   960  -126]
 [-1320  -546     4   986   171   476 -1734   172  -668    94]
 [ 1343 -1514   545 -1002   729   514 -1065   -60  1101  -945]
 [ 1529 -1047 -1683 -1889   338  4071  -889  -219  1475  -709]
 [-2114  -739   -85    81  -333  3120 -1581   798  2636  -102]
 [ -851   -18   214     0   163   628  -867   354   972   -87]
 [    0     0     0     0   -13   -94    -9   739  -632    -6]
 [    0     0     0     0   -14     0     0    37     0   -24]
 [    0     0   -26  -243   -42     0     0   478   -14  -195]
 [  374  -156  -333  -149     9  -118  -264  1330  -107  -466]
 [   15  -291  1395  1456    30 -1164  -339   636  -587   -24]
 [ -624  -802  -812   778  -491    61   -98  1215  1299  -773]
 [  464 -1630  1360  -485 -1154   404  -948    36  -349    51]
 [  -78 -1840  2057   414  -863  -472  -874  -132   425  -126]
 [  144  -482   262  1188   151  2035   250  1134   618  -150]
 [  113   563   415   -41    39   974  -253   431   960   939]
 [ 1055  -466     7 -1274   845  1320 -1018  1178  -138   895]
 [ -910  -426   599  -721  -130    33    35   574   448   315]
 [  -12   540  -438  -667  -840  1212 -1246  -840  1147   245]
 [   38  -559  1452  -692  -425   860    61  -177   820  -280]
 [  743  2123  -384   539  -277   915 -1165   736   597   -46]
 [ -738   604   -34  -182 -1536   -53  -749  1314    95   972]
 [-1104   832  -771  1046  -174  -407 -2139   763  -714  -560]
 [  403  1032   650  -128  -248  -480 -1593  1575  -328   735]
 [ 1267  -127   530   957   121    23  -520  1192  -551   225]
 [  926   530   371   484   153  -800  -880   928   266   588]
 [  241 -1342  -445   -56  1653 -1073  -792  1015   541   362]
 [   36 -1237 -1322   277 -2025  -785 -1463  1007  -360  -130]
 [  160    68   640  -668   974     3 -1053   104   136 -1196]
 [ 1041  -806  -945   796  -672    90  -436  1604  1057   279]
 [  981  -701  -297   525 -1514  1219   259  -865   299  -276]
 [  858 -1379 -2128 -1525 -1263  4827    22    51    75  -660]
 [-1156  -270  -485   342  -546  3750 -1470   701    -4   706]
 [ -692   -55   420     0  -387  1208  -818   223   793  -146]
 [    0     9     0     0     0   -69   -96   201    -9   -22]
 [    0     0     0     0     0     0     0     1     0     0]
 [  104     0   -26  -132  -142   -54     0   507   -27  -238]
 [    0     9  -119  -210  -445  -126     0  2457   -54 -1349]
 [  -40  -204   212  2077   535 -1997  -263   571   291  -489]
 [-2200  -417    20  1224 -1135   223   408   375  -216   312]
 [ -693  -523    65  -838   429  -250    14   155   978  -357]
 [  275 -1856   627 -1188   852   331  -507   210  -372  1578]
 [  753 -1441   -50 -1391   805   594  2263    87  1483   737]
 [ -405  -739  -932  -321   191   146   597 -1480  1408   995]
 [ -790  -308  -816 -1014   700  1144  1232   478  1104    73]
 [ -282  -256 -2486  -336   673    24  -955  -133   446   -24]
 [  111  1067  -913  -335  2026  -259   191  1993   475  1921]
 [ -653  -763 -1996  -398  1496   884   201  -148  -203  1144]
 [  636  1598  -828  2356 -2178  1259  2468   577  1397   314]
 [ -522  2118 -1089 -1027 -1114   597  1082  1869   963    28]
 [-1193  2371 -1794   979    85  -435 -2215   267   689   189]
 [-1656   784  -447  -209  1293  -509   130   954  -883   719]
 [  448  -226  -909   457  -114  -587  -591   486   640   856]
 [ -870 -1120   163   666    81   367  -991   812   -95   539]
 [  956   192  1092   807  -676  -996 -1153   401  -494   127]
 [ -516  -308   410   307  -248  -995   210  1070  -559   670]
 [  903  -660  -824    32  -475 -2314   320   850     8  1245]
 [  290  -882  -330   399 -1148  -824 -1743   812   -36    26]
 [ 1158  -375  -413  -558 -1492   396  1981 -1167   522  -203]
 [   80 -1007  -133 -1476 -1926  3705  -864  -357  1576  -540]
 [-1457  -375   239   520 -1304  4816 -1841  -449  -107    17]
 [ -941  -199   236     0  -356  1413 -1804   -91  2031  -133]
 [    0   -11  -280     0    -6     0   169    55    19     0]
 [    0     0     0     0     0     0     0     0     0     0]
 [    0     0   -19   -19  -158  -109     0   455   -21   -79]
 [    0   -92     0  -219  -642  -130     0  2154   -57  -936]
 [  -48    14  -838   302  -521  -682  -233  2158  1362  -708]
 [-1074   189  -508    41 -1431   231   496  1241  -627  1679]
 [ -177  -267  -654    72  -277  -357  -395   271   398   381]
 [  606  -765 -2584  -445   581   389   796   287   422   506]
 [ -239  -746 -2837  -300   723    30  -508  2441   601   906]
 [  241  -595 -1505  -909  1135    88  -285  1902 -1333   811]
 [ -321  -642  -648 -1182   752 -1694  -512   235    64   880]
 [  470 -1597 -1730   206  -165   559   394  -822  -958   -42]
 [ -182 -2178  -981  -251  1377  -272  1108   354  -339   676]
 [ -167   253 -1474  -543  1498   157  -610 -2032   579 -1674]
 [ -150   315  -833    29   177   725   -27 -2873   269   233]
 [-1375  1085 -1345  1111  -638  -865 -1354   825  1138  1034]
 [-2454  1445  -492  -227   596   387  -607  1342  -631   956]
 [-1359  -305  -688  1305   752  -433  -114   699   726   119]
 [  -14   470  -734    62   744  -186   -42  2411  -399  1652]
 [ -195   823    93   569   -80  -528   197  1188   313   392]
 [  368  -513     4  -524  1159  -146   184     8  1176  1298]
 [  479  -767   212   708   128  -805  -751   -71   894   621]
 [  345   429    -8 -1208   472 -2041     3   229   410   772]
 [  346  -255   344 -3581   646 -4558   731   345  -116  1184]
 [  787    24  -853 -1161  -390 -3446  2809  -628  2237  1166]
 [ 3091  -304   454  -965  -330 -4845  1288  -497  3127 -1612]
 [ -722   -43  1686   304  -432   123  -546    53    77  -704]
 [-1140  -243  1196     0  -213  2081 -1756   529  -254  -110]
 [    0   -32   -89     0  -235    -1   250   204   -52    -2]
 [    0     0     0     0     0     0     0     0     0     0]
 [    1     0     0   -37  -190     0     0   352   -14   -51]
 [    0   -23     0   -51  -349    -8     0  1166   -35  -512]
 [   95   192 -1185   191  -599    48  -207  1218   550  -731]
 [  271   675 -2998 -1321  -553   908   -50  1457  -553  1731]
 [   74   -77 -2689  -600   954  1012  -801   150   139   596]
 [  800  -260 -2808  -563   214  -473  1188   415  -515   902]
 [  995  -481 -1988  -525  1463  1002  -311   262   580   334]
 [  211   713   -69   564   176   495  1666  -361   538   432]
 [ -279   187  -107    40   743   365   686  -959   422  -468]
 [ -228  -295  -138   -27  1977   630   218   708   296   717]
 [  850  -805  -356  -245  1020   699   636    67  -422  -311]
 [  216   736   -24   189  1433   912   409 -2516   745  -449]
 [-1194   950   865  1096  -895   896   517 -2118  1001   603]
 [-1876   985   352  1027  -221   -40   197  -145    76   -53]
 [-1424   232  -132   -88   990  -185   595  1123  1308  1230]
 [-2410  2198   -69  -327  1097  -764   320   224   513  1093]
 [  369  1384    -3   378   413  -987  -349   220    95  1180]
 [  808  -835  -718   631  1041   635 -1783   429   331  1058]
 [ -972  -444  -832  -186    78  -731    26  -621  -395  1135]
 [-1159  -871  -652  -842   890   252  -828   100   449  1023]
 [ 1436  -288   279  -970  1137   147   720   463  -266   599]
 [ -281  -447  -435 -2093  1044  -238  1490  -237   683   606]
 [ 1798  -436  -747  -879   155 -1454  1936  -282  1038 -1109]
 [  960  -524  3104   -29 -1533 -3782  1183  -119  1479 -1881]
 [  749  -276  2973   237   149 -1804 -1201   471   -54  -947]
 [ -226  -365  3635     0  -197   278 -1734  -258  -511  -307]
 [  -18     0  1291     0  -795   -31    15  -260     0     0]
 [    0     0     0    -2     0   175     0     0     0  -171]
 [    0     0   -91    56  -136     0     0   249     0   -47]
 [    0    32   -67    17  -260     0     0   819    -6  -422]
 [-1017   319  -996   460    -9    20   -45  1280  -256  -202]
 [    3   531 -2098 -1138  1711   436 -1630   488 -1343  1114]
 [   82  -277 -2376 -1967   232  -910   194   359  1041   449]
 [  545  -488  -694 -1280   602  -155  1537  -548  -402  -306]
 [ 2401  -826  -388 -1069   960   577   284   409 -1157  1299]
 [ 1595   238  1167  -291  1786   -90   713  -111  -148  -142]
 [  343  -259 -1986  -123   818   539   193   773  -576  1391]
 [ 1051 -1086  1350    41   273   671  1770   230   230    93]
 [-1010 -2827   -97 -1572  -172  -123   154 -2114   613  -853]
 [ 1874   787   590   531   984  -631   237 -2080  -296  -589]
 [-1373   568   107   601   -77   -97  -317    27  1621   758]
 [-2079  1762   753  -378   242   856  -382  -976   472   379]
 [-1286   695  -977  1132   371  -353   429   322   396   669]
 [-1525    55  -157   -31  1064  -264   145    40  -335   571]
 [-1246  -685  -802    29   349  -550 -1050   116    36  -636]
 [  860 -1742   423   360  1074  -666  1009  1013  -703   410]
 [ -208 -1164   376  -146   468   160   461  1821  1204   102]
 [ -835   -59   223  -749   993   -31   179   961 -1032   190]
 [ -104  -797  -448   153  -335  -366  -203  -372   -57   515]
 [  625  -183    17  -562   184   432   768  1374 -1481  -159]
 [ -194  -255  -397  -596   -85   624   380   -61 -2308 -1327]
 [ 1346     4   500   256  -583  -488  1502   -61 -1350 -2092]
 [ 1107  -138  2787   -12    40 -1845  -321  -958  1137  -345]
 [  -25   -41  2459    -2  -679   -39 -1394   -77   286   -30]
 [    0     0   101     0   -85     0    -4     0     0     0]
 [    0     0     0    -1     0    58     0     0     0   -57]
 [    0     0  -205   205     0     0     0     0     0     0]
 [    0   126  -193   241   129   -11     0    56     0  -383]
 [-1335     9   501  -152   449  -678  -130   554   180   -46]
 [ 1169    33   187   401  1895  -373 -2573   233  -880   554]
 [  517  -545  2072   106  -272  -750  -222 -1090 -1381 -1296]
 [ -716 -1249  1231   643  1460 -1190   -25  -302 -1384   652]
 [  905   440   546  -173   616  -726  -136  -262  -252  -173]
 [ -207   226 -1187 -1289   -51   -77  1033 -1939  -898  -429]
 [ 2197   106  1055   -33   235   566  -201  -566   412  -942]
 [ 1059 -1883    -1  -812  1653  -279   726 -1291  -872  -284]
 [ -318   918  -906   674   609  -296   -19  -355   -61   799]
 [ -163   980  -281   -93   579  1196  1921 -1111   886   271]
 [ -880   502   901  -102  -291   192  -262   -53   512  -450]
 [-2936  1311    27   799   249 -1504   532  -494   379  -507]
 [-1664   522   909    70  1175  -124   -82   412   570   674]
 [-1062  1397  -305  -649   705  -851   398  -430   216   478]
 [-1633 -1679  -316   106   278  -780 -1203  1146  -769   965]
 [ -144  -810  -325  -803  1223   861  -248  2797  1155  1489]
 [  235  -753   835  1081   709   507  -470   761   129   420]
 [  861 -1359 -1464   200 -1008 -1224    45   220 -1084  -286]
 [   88  -467  -250   332   405  -402  1160   883  -451     2]
 [ -428  -346 -1188   562  1138  -560   -68   410  -233   -39]
 [ 1673  -241   166  1023  -737   876    73   894 -1034 -1318]
 [  866  -101   884   744 -2305  1738  -141  -867 -1339 -2069]
 [  226  -134  2396  -521  -993  -644  1690 -1564  1069  -781]
 [  -55   -87  2219    21   699  -165 -1521  -414   -12  -338]
 [    0   -19   258     0   -91   -46   -73     0    -6     0]
 [    0     0     0     0     0     0     0     0     0     0]
 [    0     0   -92    93     0     0     0     0     0     0]
 [  -19    88  -109   604     9  -334     0  -148    -3   -85]
 [ -867     0  2008   448  -642  -130  -179  -332   404  -429]
 [ 1321     7   922  1629  -678  -507 -1312  -718  -593   642]
 [  400  -482   794    97   294  -171   389   223 -1217  1152]
 [ 1263 -1187   791  -998  -523  -436  1257   217  -545  -830]
 [   59  -796  -394 -1056  1175  -347  1235  1008   771   501]
 [ 1602  -448   -57  -420   817  -891   937   393   124   720]
 [ -340   395   695  -235  1412   -14  1527   327   649   654]
 [  644  -332   515   401 -1108   -68  1358  -316   626   -82]
 [ 1091  -615   869  -216   619   754  1882 -1939   132   569]
 [ -119  -768   419   244  -708  -297   637 -1133   691 -1422]
 [-2002  1297   181   735  -309  -500  -292  -824    93  -444]
 [-3646  1154    21  -265   210  -599   258  -878   231     9]
 [ -743   325  -297  -157   906  -775  -103  -292  -492  -155]
 [ -230  -271   462  -769   784  -568  -769   314  -184  -545]
 [   -1 -1891  1012   349  1279   -25   187    97   106   542]
 [  515 -1377  -354   354  -376  -695     0  -372  -621   352]
 [  541 -1435   338  1087    29   -29  1356   571 -1341  -586]
 [  745  -602 -1222  -763   371    98  -344  -109 -1363     7]
 [   15  -496  2772   906   685   995   -61  1291  -698  -999]
 [  761  -471   -26   745   -89   467  -633  -750  -817   319]
 [  246  -683   532   851 -1067    87  -245  -953   592 -1576]
 [ -546   120  1402  2207 -1853  -703   838 -1231  -165 -1624]
 [ -454  -321  4287  -650  -375  -721   345 -1650  -379  -763]
 [ -215   -11  3712    17  -440  -380  -811  -480  -321   -68]
 [   40   -58   503     0   -37   -85  -225   -52   -12    -2]
 [    0     0     0     0     0     0     0     0     0     0]
 [    0     0   -49    50     0     0     0     0     0     0]
 [ -154     0   585   169   226  -448     0    -5     0  -275]
 [ -601     0  1053  2107 -1682   928   -34  -245   108  -768]
 [  211    -2   464   983  -782   450 -1951   221  -431  -961]
 [ 2118  -789  1134  1241 -1688   836  1167   829  -289  -388]
 [  623 -1405   736   229   216  1710  -781 -1752   -43  -500]
 [ 1224  -540   111  -265   438 -1138   514  -430  -147  -278]
 [  898   -96  1095  -157  1056   300   718  -241   491   890]
 [  308  -359  -180 -1430   336 -1220  1137  -726   603  -704]
 [ 1656   601  1369 -1567  -445 -1038  1008 -1588  -649  -187]
 [ -668  -764   -40 -1300  -296 -1724  1031  -664   110  -367]
 [ -604   241  1480  -582   151 -1039 -1278   399    16   157]
 [-1408  1247   401  -216    11 -1051   707    15   801    61]
 [-1537   272   750  -578  1799  -882   985   253  -154  -426]
 [-1252   -20 -1057 -1037   458   640 -1101  -841   182  -101]
 [ 1085 -1779   538  -181   830   264   794   455   640  1486]
 [-1040  -819   128   436   400   731   619   605   212  -434]
 [ -573 -1642   218  -297  1470   806   394   162  -518   -28]
 [ -440   437    96   688  -287   330   -20  -147   -56  -524]
 [  721  -774  -679   530   147   401  -393   149  -259 -1022]
 [    6   112 -1110  -637  1438  -765   554   187  -473  -575]
 [    0    75   320   357  -946   257  1118   661  -215  -385]
 [ -279  -207  -391  1430    71   736 -1014  -661   715 -1480]
 [  471   463   621  -910 -1301  -100  1712   755   148 -1456]
 [  186  -830  3712 -1377 -1112  -842  1186  -241 -1158   -60]
 [  -26   208  1119   -47  -136  -181  -421   -31   -96   -13]
 [  352   -44   305     0  -356    -6   -66  -160     0   -27]
 [    0     0     0     0   -76     0     0    67     0    14]
 [    0     0    -2     3     0     0     0     0     0     0]
 [ -131     0   -36   194    71  -241     0   263     0  -116]
 [-1009     0   650  1978  -280   760   202    31  -587  -945]
 [  226  -154  1650   335   120   741  -743  -345  -838  -313]
 [-1251  -773  1090   443  1165   831 -1376   584   332 -1874]
 [  516 -2043   749   180  -612  1367   507  -898    -3    24]
 [ -838 -1136  1038  -803  -895 -1108   541 -1194    10  -565]
 [  889  -118  -516   949   638    69  1078  -326   217   612]
 [ 1078    27  -441 -2068   192   112   399  -161    64 -1341]
 [ 1148 -1071   590  -150 -1307  -335   -49 -1491   525  1149]
 [  467  -527  -196  -916   398   749  1334  -226   697   366]
 [ -485  -372  1066 -1575   902   -96  2166   -69  1036  -239]
 [-1208    -1  -148  -246   566   176  1256   169  -305  -275]
 [-1685  1064   895  -724   525   141  -571  -310  -105   563]
 [ -500  -807   244  -488   180  -506   449   291  -169   981]
 [  401    -3   644  1684  2600    15   951  -234  -424   511]
 [ 1247   244   299  1034  -680   527   -50   -18    21   373]
 [ -120   407   -27  -255    29  -639  1044  -419 -1371  -291]
 [-1254   -70    82   443 -1434   178    43  -370   214   -37]
 [  115   826   793   229  -166   467  1720   519  1458  1003]
 [ -509   461  1140  1189  1325  -116  -810  -495  -932   265]
 [ 1702  -326   661  1019 -1353   258  -609    51  -350  -288]
 [ -988   332   820   520  -270  -469   771 -2157   349 -1787]
 [  212   635  2645 -1196  -755   676  -192 -1896  -744 -1428]
 [  -57   440  2533  -630 -1654  -377  1280  -111  -568   -79]
 [  -59   446  -259   -77   -18   -51  -191   456   -39    -8]
 [  -48     0   109     0     0   -35    -5     0     0     0]
 [    0     0     0     0     0     0     0     0     0     0]
 [   61    11   -33     0  -324     0     0   336    -8   -61]
 [    6     4    19    84     1  -117    -2   267     0  -136]
 [ -834     3    38  1635  1112   759  -151  -111  -711  -459]
 [  790  -526  1015   597  -366  1488   301   595  -816 -1148]
 [  414 -1866   612  1421   926   892  -465  -487  1835  -768]
 [  958    12   383  1402   192   795   796 -1045   263  1167]
 [  358   443   -67  -913    62   529  -378 -1395  -949  -154]
 [  669  1055  1252  -529   381  1342  -269  -192   813  -535]
 [ 1410   -83   812   473 -1010  -585   992  -402   199  -301]
 [ -696   624   658  -337  -912   285   658 -1147  1442   275]
 [  351  -186  -332   -56  -749  -636  1219  -468 -1304 -1549]
 [  267   285  1537  -282  -987   216  1098 -1011   275  -560]
 [  757    19   729  -303  -496   -59  1069  -437   106  -948]
 [-1385  -622   107  1244   203   224  1481   611  -365  -701]
 [  679  1376  1125  1167  -278   382   908  -334   216 -1213]
 [-1286   537  1359   506  -809   573   831   556   863  -857]
 [  308  -126  1396  1400  -785   597   804  -674   696  -122]
 [   68   410   685   825   -11  -316   657  -186  1374  -491]
 [ -226   844   126   187   631  -279  -814   -29  -364   638]
 [ 1018   403  1480  1646  1850  2039   987   509   881   670]
 [  -69   353    94    46 -1230     8  1499  -619  -126  -473]
 [ 1150   519   411   315 -1680   421   862 -1731   397 -1717]
 [  755   213  1424   510 -1476  1248  1149 -2465  2027 -1031]
 [  219  1087   698  -633 -1376  1262  -358  -204  -248  -485]
 [ -389  1132  2627  -162 -1075   335  -443  -312 -1040  -127]
 [  -25   458   823    -2     0  -447  -417    -1   -39   -88]
 [    0     0    36     0     0   -32    -1     0     0     0]
 [    0     0     0     0     0     0     0     0     0     0]
 [  149     0   -51     0     0     0     0     0     0   -66]
 [  -44     0   475   -19   127   -60     0   -37   -25  -181]
 [ -133   -13   779  1323   503  1105  -135  -664  -400  -648]
 [  116  -227   323  1587   -71  -537  -118 -1275  -389  -271]
 [  319 -2250  1023   305  -980   426  -968 -1287  -923  1095]
 [ -358  -472   -49   344  -773   743  -736  -863  -234 -1257]
 [  204  1080  2685   678 -1234  -824  1248 -1488  1318  -336]
 [  990    70   945  1583 -2008  1630   392   706   816  -437]
 [ -173   964   688  1122  -418   596  1649  -773  -209  -558]
 [ 1922  1150  1902   727  -128   909  2390 -1211   388 -1216]
 [ 1083   -88   780 -1284  -373  -603   471  -444  -496 -1156]
 [ 1119   131  -793  -332   428   648   759  -146   -39  -998]
 [  941   614   865  -522 -1262   -42   666  -479  -590  -304]
 [  250  1299   468   347  1281   207  1342  1149  1101   242]
 [  650  -577   128    67  1092  1300  2544  -618   654   734]
 [ 1394  1555   735    96   779    90   813 -1496  -892    37]
 [ -340  2114    40  1001  2134   933   576 -1054   744   382]
 [  638  1259   -35   278  -638  1477   641 -3020  -159  -915]
 [   17  1101   591   694  -910   221   725 -1161   364  -952]
 [    3   957   480   803  -968   651   227 -1045   638   211]
 [  -70  -654   797   -17  -305  -346  -318 -2250  1008  -991]
 [  588   323    98  -452 -1909  1542  -729 -1432   356 -1477]
 [ -347   271   377  1437  -985  1235   645  -914   419   112]
 [ -132   577  1888  -348  -956    10  -365    33  -816   770]
 [ -392   316  1219  -112 -1174   969    39  -532  -582   774]
 [    0   409   -34    77     0   -43   -91     0  -138   -79]
 [    0     6    -5     0     0     0     0     0     0     0]
 [    0     0     0     0     0     0     0     0     0     0]
 [    0     0     0     1     0     0     0     0     0     0]
 [ -222     4   731   382     6  -218   -11  -390   -16   -77]
 [ -382   101   671  1405    27   827  -201 -1021  -483  -435]
 [ -587   408   683   193  -413   706  -772 -1336   160  -434]
 [  586  1686   505   -56   418  1500  -802  -831   576   583]
 [ 1094   371    33   362 -1881   190 -1646  -767   725  -606]
 [ 1599  -592  -249   627  -700   581  -113 -2080   221 -1124]
 [ -357  1453  -368   103   897  -206   715   236  -267  -657]
 [  598   -11  1043  -137  -571   421  -321  -327   783  -348]
 [  303   398  -722 -1800 -1554  -151   569 -1367  -208 -1164]
 [  909   279   331  1142   457   627   443  -692  -744 -1153]
 [ 1275  -220   807 -1189 -1025     7  2264   306   100 -1014]
 [ -582 -1011   -36   248  -343   403  2126  -605   286  -168]
 [ 1451   818  1153   596   449  1238   768 -1447   345  -448]
 [ -385   582   264  1393  -121   175  1499  -468   155  -808]
 [ -793   432  -442  -612  -424   161   219   -56   222  -316]
 [ -341  -781  1551   480   -21  -116  1859   469  -261  -171]
 [   85  1398  1170   885   262   210  1075  -784    22  -394]
 [ -673  1690  1911   547    27   528   962 -1311   286  -365]
 [ -563  1690   133   503    17   -79   318  -609   579  -913]
 [ -404  1171   777   -37   127   828  -193 -1512  -193  -442]
 [  109 -1418  1271  -481  -606  1152   378 -1773   651 -1621]
 [  214  -399  1024  -798  1057  -620  -184 -1447  -134  -114]
 [-1044  1046  1347  -828    47   564  -140  -145 -1353   976]
 [ -356   118  1117  -100  -802  1184  -216   -42  -389  -262]
 [  320    62   -61    26   -21    50   -36  -171   -39  -215]
 [    0     0     0     0     0     0     0     0     0     0]
 [    0     0     0     0     0     0     0     0     0     0]
 [    0     0     0     0     0     0     0     0     0     0]
 [  -30     4   989   -15     0  -113     0  -501    -3   -19]
 [ -510  -185  1258  1441  -101   -52  -206 -1446  -112    81]
 [-1296   810   765  1182  -432  1146  -444 -1194  1221  -297]
 [ -311  3653  1030   -12  -896  -868  -722   -86  -192 -1539]
 [  742  1920  1217   789  -286  -877 -1651  -830   492   889]
 [-1506   768   990    47 -1576    11 -1735  -356   -89  -935]
 [ -107   627   596  -691  -776    -5   213  -373  -253   292]
 [  771   748   425   -87    51   419   765 -1050  -475  -191]
 [  365  -175   431   551   647  -136  1043   767   170  1013]
 [ -292  -709   544   628 -1085    98  -375  -575   974   732]
 [ 2193  -484    39  -178  -374   534  1681  -794    22  -439]
 [ 1452  1023  1560  1206  1089  1911   936   609  1932   223]
 [  288   924  -111   -40  -947   367  1512   282   162  -367]
 [ 1820   473   165   -76   211   201   -34   322  1042    57]
 [  156   309  1021   809  -765   522  1012  -726  -417  -804]
 [  -91  1708  -358  1169   169  1909   350  -106  1340  -306]
 [   94  1689   774   418   521   148   549   252   522   418]
 [   20   329   931  1046   273   860   -30   200   252  -315]
 [ -165  1408   481   145   789   982   795 -2869  -611  -790]
 [ -555   454  -416  -627   748  -781   702 -1345   374 -1071]
 [  866 -1143   935  1159   468     8  -744 -1952    43  -135]
 [  937  -588   -69  -186   589  1369 -1346 -1679   -79  1035]
 [ -814   137  1037  -675  -266  1287  -338   -90  -488   635]
 [ -219    15   384  -115  -566   987   -44    37    31    66]
 [   33    35  -335     4    58   329     0   -21   -33   -62]
 [    0     0     0     0     0     0     0     0     0     0]
 [    0     0     0     0     0     0     0     0     0     0]
 [    0     0     0     0     0     0     0     0     0     0]
 [    0     0   160   467     0    -5     0  -494     0  -140]
 [ -183  -720   -47  2029   -11   421     0 -1231  -253   244]
 [ -913 -1154  -183  1715  -364  1716     0   186   519  -721]
 [ -803  1802   311   512  -813   799   -34  -195  -465  -893]
 [  573   391  -229   188   141   747  -204   488  -417 -1053]
 [  402  -199   320   860   -70  -887 -1048   -49 -1006  -973]
 [  638 -1054   331   177   407   516 -1119  -716   991   949]
 [ -187  -131  -163   217 -1438   268  -686  -878  -162 -2076]
 [ 1332  -148  1357   316   536   432  -619   -69    55   343]
 [ 1038   930    18   650  -430   373    23 -1196   501  -667]
 [  473   139   622   163   636   576   -22  -301     0   191]
 [  154  -315   837  -533    91  -204  -427   216   900  1130]
 [  732  -941 -1105   165 -1379  -201   584  -982    25  -202]
 [ 1016   588   473   744   876  1491   976   907   518   303]
 [  327   257  -486  -693   331  -917  -815  -799  1103   -69]
 [  823  1329  1173    34   704   499   911  -119    53    33]
 [ -750   -85   464  1205   231  -301   986  -603   380  -891]
 [-1194   401   989  -436   489    30   585 -1547   769  -811]
 [-1505  -470  1597   690   117   472    49 -1265   -62   910]
 [ -967  -963  1107   330   755  -206    33 -2467   192   597]
 [ -181  -480  1124 -1000  -463  -226   103  -448   467  1403]
 [ -520  -810  1650  -376  -969   533  -347 -1403   791  1441]
 [-1050  -174  1483    51  -752   301  -206  -318  -235  1013]
 [ -174    15   590  -125    76   275   -47  -173    21  -227]
 [    0   163  -216   138    60   203     0    -5  -160  -198]
 [    0     0     0     0     0     0     0     0     0     0]
 [    0     0     0     0     0     0     0     0     0     0]
 [    0     0     0     0     0     0     0     0     0     0]
 [    0     0     0   278     0     0     0  -259     0   -32]
 [    0  -429  -845  1488     0   617     0     6  -724   -86]
 [  479  -667 -1131  1425  -166    33     0   659 -1086   555]
 [ -763   357  -877   633   -28   -34   -20  1650 -1444   736]
 [ -839    74 -1178  1928   427  -102   -27  2050  -333   230]
 [ -888    59 -1299    16  1043  -129  -265   704 -1010    37]
 [ -348   226   260    64  -251  1238  -567  1136  1561   704]
 [ 1634   904  1009  1178   848   963  -931  -296   -89   -90]
 [   95   220  -490  1561  1578   977 -1880   692  1532   813]
 [ -863  -570   130   252    71  -288 -2246  -223  -501  -125]
 [ 1330  -198   636   636  -878  1354  -677  -428  1700  -896]
 [  219  -597  -576   591  -251   356 -1656  -968  -190 -1171]
 [  185   -96  1087   851   712   341  -845    96   894 -1099]
 [ -409   159   858   203  -808  1273  -112  -141    84   -38]
 [  393 -1817  -387   765   882   397   109  -357  1938    77]
 [  551  -340   -68  1614 -1075   833  -299    78  -964    13]
 [ -391   261  1681  -824   547   118   -90  -907  1120  1204]
 [-1859  1046   707  -753   469   188  -349  -790  1206   322]
 [-1732    93  -484   -99   174   723   -76   320   537   625]
 [-1110   153  1581  -399   177  -261  -177  -787  -166   716]
 [ -759  -422  -532  -295   108   901   -74  -784   247   883]
 [ -430  -235   452  -276   -80   397   -14 -1082   -42  1633]
 [  -72   -75  2370  -421  -707   373     0  -359  -545  -382]
 [    0   260  1183   -80   186  -753     0  -237  -244  -257]
 [    0    51    45     0     0   -32     0     0   -23   -44]
 [    0     0     0     0     0     0     0     0     0     0]
 [    0     0     0     0     0     0     0     0     0     0]
 [    0     0     0     0     0     0     0     0     0     0]
 [    0     0     0     3     0     0     0    -4     0     0]
 [    0  -187   -64  -631     0   610     0   291     0    -9]
 [    0  -330   -98  -705   160   836     0   916  -184  -192]
 [  -53  -768  -204   239  -281   102     0   -97  -729  2367]
 [ -454  -879   460  1316  -524   388     0    -6  -198  1461]
 [-1057  -950   -89  2534  -985   712     0   323  -122  1169]
 [-1185  -241 -1524  2528 -1649   -85    -5   -91  -449   -55]
 [-1115  -336 -2036  2096   -61   969    -5  1302  -575  1377]
 [-2006 -2308 -1025  1984  -798  1286   169   637  1591   775]
 [-1870 -1506 -1687     1   159   454  -386   674  -203     4]
 [-3125   -92  -461  2642 -1282   756  -306   161   223   754]
 [-2950  -713  -136  1147  -403  1242  -272  1836  -129   670]
 [-3365 -1027    54   589  -626   -56  -536  -745   795   859]
 [-3456 -1029  1276   822   450  1718  -578  1277  1103   764]
 [-1712 -1615   329  1113 -1263   941  -462   245   937   290]
 [-2777 -1168   987   950   131  1533  -106   816  1503   736]
 [-2483  -889  -708  1450    77  1853   -81   876  1346   913]
 [-1035  -837 -1799  2221  -702   836   -25  1522   871   892]
 [-1076  -363 -1029   141  -841   886    -6  -173   737  2445]
 [ -882  -102  -594  -926  -702  1742    -7   550  -155  1139]
 [ -559   -66  -944  -417  -752  2145   -18   802  -435   313]
 [ -148     0  -547   -58  -589  1587     0  -287   -48   407]
 [   -7     0  -137     0  -532  1116     0   -63     0  -284]
 [    0     0    40     0     0     0     0   -77     0    46]
 [    0     0    48     0     0     0     0     0     0   -46]
 [    0     0     0     0     0     0     0     0     0     0]
 [    0     0     0     0     0     0     0     0     0     0]
 [    0     0     0     0     0     0     0     0     0     0]
 [    0     0     0     0     0     0     0     0     0     0]
 [    0     0     0     0     0     0     0     0     0     0]
 [    0     0     0    33   181     0     0  -803    -7   566]
 [    0     0     0   291    98    -3     0  -994  -105   894]
 [ -166    -7    -2   455  -237  -790     0    50  -319  1474]
 [ -421   -30   -47   492  -774 -1537     0   499   147  1609]
 [ -562   -11  -133   100 -1344 -1735     0   940   524  1626]
 [ -650   -41  -241   132 -1494 -1002     0  1311   234  1824]
 [ -245  -361   -64  1112 -1003  -185    17  1035  -240  2054]
 [  -58  -289  -512  1133 -1452  1025   -33   328   197   683]
 [  -20  -827   -65   246  -992  1119   -49   595    63  2275]
 [ -332 -1190  -616  1003 -1559   395    30  1438   506  1740]
 [ -613  -858  -485   794 -2327   160    -8   533  -472  1822]
 [ -438  -514  -439   434 -2202  1763   -24  1966 -1265  1231]
 [ -157  -226  -616  1054 -1500   352   -17   499  -735  1607]
 [ -551  -211  -851   917 -1674   -89     0  1477  -157  1971]
 [ -241  -281  -329   965 -2211    11     0  1336  -426  1848]
 [    0  -333    -4   545 -1803   511     0  1411  -885  1112]
 [ -452  -135   -18   314 -1163   651     0   511  -161  1506]
 [ -538  -100  -253    45  -711   398     0   718    -5   907]
 [ -334    -3  -158    29  -869   126     0  1061    -5   -63]
 [  -15     0     0    -1  -291     7     0    16     0   293]
 [    0     0     0     0   -54     0     0    -3     0    55]
 [    0     0     0     0     0     0     0     0     0     0]
 [    0     0     0     0     0     0     0     0     0     0]
 [    0     0     0     0     0     0     0     0     0     0]
 [    0     0     0     0     0     0     0     0     0     0]
 [    0     0     0     0     0     0     0     0     0     0]
 [    0     0     0     0     0     0     0     0     0     0]
 [    0     0     0     0     0     0     0     0     0     0]
 [    0     0     0     0     0     0     0    12     0   -12]
 [    0     0     0     0     0     0     0    29     0   -29]
 [    0     0     0     0   -39     0     0    13     0    33]
 [    0     0     0     0  -340     0     0  -165     0   490]
 [    0     0     0     0  -309     0     0  -129     0   438]
 [    0     0     0    -2   -67     0     0    62     0   109]
 [    0   -23   -39   -83  -348    -3     0   554    -3   -14]
 [    0   -14    -8   -28  -175    -4     0    41     0   125]
 [    0     0     0     0  -169   -11     0   252   -29   154]
 [    0     0     0    -3  -141    -4     0   890   -19  -663]
 [    0    -1     0   -21  -846   -10     0   728    -1   327]
 [    0     0     0   -22  -231     0     0   485     0  -124]
 [    0     0     0   -67   -36    -1     0   112     0    12]
 [    0   -57     0    -9   -55     0     0   457     0  -323]
 [    0  -126     0    -2   -97    -3     0   347     0  -139]
 [    0     0     0     0   -67   -24     0   468     0  -352]
 [    0     0     0     0   -14  -329     0   365     0    99]
 [ -114     0   -17     0   -11  -169     0   270     0   171]
 [ -368     0  -198     0   -44    -9     0   669     0   -19]
 [  -72     0     0     0    -7    -2     0   211     0   -99]
 [    0     0     0     0     0     0     0     0     0     0]
 [    0     0     0     0     0     0     0     0     0     0]
 [    0     0     0     0     0     0     0     0     0     0]
 [    0     0     0     0     0     0     0     0     0     0]]
