[[ -6.67382362e-37   2.37319379e-37  -1.34397661e-37  -1.05881753e-37
   -1.02249655e-37  -5.82413363e-37   1.52665167e-37   1.79867622e-37
    2.21082007e-37  -6.70018328e-37]
 [ -1.72245724e-37   5.51483275e-37  -2.36850381e-38  -2.16006302e-37
   -6.30694978e-37  -6.58513286e-37   1.92352496e-37  -4.26615609e-37
   -2.40834463e-37  -1.63688174e-37]
 [ -2.59053944e-37  -5.32444360e-37   4.15607233e-37  -3.41510023e-37
    9.44856318e-38  -6.90388122e-36   7.23814288e-37  -3.40504003e-37
   -5.08768828e-37   6.91599490e-37]
 [  4.04047485e-37  -4.61296244e-38  -3.64920675e-37   1.51732082e-37
   -3.01268632e-38   1.30211642e-35   1.05858637e-37   4.62935248e-37
   -1.45061743e-35  -4.22949992e-36]
 [  1.20157879e-35   7.39214491e-37  -2.20911093e-37   4.13598062e-37
    2.12098204e-37  -1.53001076e-37   6.17868680e-37  -2.71097376e-37
    1.20180020e-37  -5.03398514e-37]
 [  4.72471095e-38   6.68888320e-37  -4.07905741e-37   3.41667686e-37
    4.19002231e-37   3.53467650e-36   2.91656693e-36  -6.76452014e-37
    3.83738118e-37   3.43528431e-38]
 [ -1.44784982e-37   8.08612216e-38   4.33816938e-37  -3.28191006e-37
   -1.16135940e-37  -4.58738751e-37  -7.38239815e-37  -6.77565250e-37
   -6.97970488e-37  -3.46457346e-37]
 [ -2.01188680e-37  -2.17462150e-37  -2.92672910e-37  -6.71077485e-37
   -3.20693570e-36   7.37872383e-37  -9.54948806e-38   5.25155814e-37
    6.65847705e-37  -2.84648587e-36]
 [  5.27143506e-37   4.22331806e-37  -6.65554800e-37  -5.98252161e-37
    1.94881201e-37   4.68704562e-37  -1.37344648e-37   5.16453630e-36
    2.42157670e-37   0.00000000e+00]
 [  5.95737043e-38   7.54811548e-38   2.41608563e-37  -9.68143208e-38
   -1.88092010e-37  -1.25964131e-37   1.89091170e-37  -2.64161128e-38
   -2.86558765e-37   7.98040596e-38]
 [ -7.33275945e-38   1.00863356e-37   6.90768755e-37   2.87726259e-37
   -3.23140681e-37  -6.71159635e-38   1.82262788e-37  -5.75735021e-37
    9.48782429e-36  -2.44876660e-37]
 [  2.69160333e-37   5.14725938e-37   1.91206570e-37   8.04465853e-37
    2.83853833e-37  -7.56146032e-38   1.58484211e-37  -7.34662849e-37
    2.65031592e-37  -6.29161666e-37]
 [ -5.95424457e-16   4.38231712e-16   4.75057476e-07  -3.35640893e-09
   -2.46431191e-05  -1.27853450e-10   7.01612807e-05  -3.43454128e-12
    1.22806032e-08   1.27239366e-08]
 [  5.63271828e-16  -6.52852603e-16   3.15872740e-07  -6.97274727e-09
   -4.83848489e-05  -2.50535703e-09   1.02323342e-04   6.91243503e-12
   -1.24610562e-08  -6.90666440e-08]
 [ -3.70556033e-21   5.15742974e-29  -3.41592299e-18   1.03170175e-20
   -6.24272845e-21   1.49049303e-20   1.27856927e-17   1.88081643e-22
    2.09666670e-22  -2.60819725e-25]
 [ -5.90470137e-22  -4.73573384e-30   3.09925757e-19   1.25859842e-21
   -1.93560705e-22   1.16598564e-22  -2.96125024e-19   2.02176530e-24
   -1.05080532e-23  -8.18918724e-26]
 [ -5.89332773e-38  -4.75423620e-37  -2.12410122e-36   1.18177045e-35
    4.41024276e-37  -1.86938775e-37  -1.48355437e-35  -6.49339960e-38
    6.16700872e-37   2.90827124e-36]
 [  5.25656246e-37  -2.73234636e-37   4.62073169e-37  -4.16181788e-37
   -3.34803543e-37   8.61053513e-38   4.86108778e-37  -4.05062338e-37
   -5.69610562e-37   1.46161887e-37]
 [  3.09817629e-37   4.27026896e-37   2.14397463e-36   4.80099293e-37
   -5.80475670e-37  -7.93482004e-38   1.81834742e-37   4.09570798e-37
    2.38278136e-37   2.15791309e-37]
 [  5.76447732e-37   4.14260148e-37  -1.22194661e-37   1.53871360e-37
    4.02068089e-37  -4.88099250e-37   1.38671958e-37  -2.95667788e-37
   -1.37770553e-37   6.10808916e-37]
 [ -1.88691811e-37  -3.85212329e-37  -2.98679750e-37   5.30770694e-37
    3.95049220e-36   4.05814869e-37   6.92343456e-38   3.37848037e-37
   -2.19152587e-37  -5.78554613e-37]
 [  3.08448190e-37   4.05252153e-38   4.05945179e-38   3.60665123e-37
    6.18718338e-37   3.47305659e-37   1.36135540e-37  -3.54412372e-37
   -5.29253570e-37  -1.74364039e-37]
 [  0.00000000e+00  -1.49475658e-35   6.93509022e-37  -3.51057184e-36
    6.00398681e-37  -5.97897509e-38  -8.56351652e-38   2.33109825e-36
    1.77984456e-37  -1.24781839e-37]
 [  5.57826561e-37  -4.79881453e-37   1.61288063e-37  -9.93622402e-38
   -3.92592710e-37  -6.61841919e-36  -7.97652269e-37  -1.85613304e-37
   -1.66309465e-37   0.00000000e+00]
 [  4.62703103e-36  -5.97249100e-38   3.23613580e-37   1.35202657e-37
    5.68175049e-37  -3.71009127e-38   4.11409481e-37   1.70596631e-37
    2.91291297e-37   4.33559790e-36]
 [ -1.52923948e-37   9.77980305e-36   1.48998608e-38  -2.44522681e-37
   -1.14827105e-37   3.54467796e-37  -1.47094109e-37  -1.27777793e-37
   -1.92761720e-37   1.06054752e-37]
 [  3.07030256e-37   6.57467940e-37   2.16010808e-37  -6.22902368e-37
   -4.98584684e-37  -2.32949328e-36  -8.03349226e-36  -5.22346850e-37
    4.62684269e-37   5.86768553e-37]
 [ -2.92446730e-38   1.25522599e-37  -1.97683439e-37   5.00544932e-38
    3.37662080e-37  -7.91700113e-38   1.17701430e-35   6.75283757e-37
    5.31048155e-36   6.69585024e-37]
 [  1.43165283e-37   4.28404384e-37  -8.55215367e-38  -7.91907730e-38
   -6.77038003e-37   3.43698896e-37  -7.03273629e-37   2.62306212e-37
    3.08648296e-37  -2.92663081e-36]
 [ -5.60664045e-37   8.20427292e-38   3.43820887e-37   7.22941223e-37
    2.42855494e-37   1.25193664e-37  -6.96360407e-37  -8.63405408e-36
   -3.97622318e-37  -2.10278623e-37]
 [  5.40979411e-37   6.26634755e-37   5.74770569e-37  -5.37298906e-37
    5.11854555e-37  -1.91645390e-37   6.93084552e-37  -4.02945907e-37
   -4.67022869e-37   0.00000000e+00]
 [  4.48333224e-37  -1.02562537e-37  -6.76816127e-37  -2.44325333e-37
    3.41410116e-38   3.16920800e-37  -1.34517090e-35  -5.90451031e-37
    5.40690811e-37   3.13996503e-37]
 [ -5.41216262e-23  -2.03892979e-12   2.11124951e-10  -1.30781300e-19
   -7.56004634e-11   1.66093844e-15  -1.07333600e-10  -1.48488210e-13
    2.43022995e-13   2.74970561e-14]
 [  1.99298925e-16   4.06248733e-12   8.91840490e-10  -2.26144385e-12
   -1.55123752e-02   1.60962687e-14   1.55143924e-02   5.25357318e-13
   -1.51612251e-12   3.75773224e-14]
 [ -4.77187488e-15   9.10077075e-25   1.38057803e-04  -5.87786841e-09
   -2.02570215e-01  -5.25630028e-08   2.02880949e-01   1.56941210e-10
    5.33056932e-12   6.23857019e-08]
 [  1.61986263e-15   1.84391530e-11   2.20863352e-04   8.38431813e-09
   -4.84463394e-01   5.32817950e-08   4.80812162e-01  -3.18809978e-11
    8.60286981e-11  -9.61918971e-08]
 [  2.61884681e-11  -5.61187800e-04  -6.79104328e-02   2.55040700e-08
   -3.41621846e-01   9.63605729e-09   4.09776598e-01  -2.25822470e-04
    1.89916875e-06   9.67287747e-07]
 [  1.38668412e-07  -1.38920426e-04  -6.84496760e-03  -1.89935491e-07
   -4.15463537e-01  -4.81359230e-10   4.82459754e-01  -4.94577410e-03
   -1.17659838e-05   3.30778607e-06]
 [ -4.45236731e-03  -2.73094738e-05  -5.55193089e-02  -9.20673926e-07
   -1.81959406e-01  -2.34776110e-09   3.25876147e-01  -2.49567878e-04
    7.66314997e-07  -4.20699280e-07]
 [  2.11685568e-01  -4.44348913e-09  -2.31551960e-01  -2.22205790e-06
   -2.80227840e-01  -2.46583447e-08   3.60152811e-01  -2.67179124e-03
   -7.79290076e-07  -2.50717085e-02]
 [  5.20681918e-01  -5.36210136e-03  -2.00591743e-01  -2.21967045e-03
   -5.56916595e-01  -2.17274902e-03   5.13855815e-01  -8.71410370e-02
   -1.77552545e-04  -9.29657817e-02]
 [  2.08872706e-01  -1.64313968e-02  -5.94916046e-02  -2.82978802e-03
   -1.85894072e-01  -7.84660806e-04   8.38703290e-02  -1.97268147e-02
   -3.31437518e-03  -1.95259340e-02]
 [ -6.97333948e-04   6.37619123e-02   3.67255993e-02  -6.63621584e-03
   -5.76372351e-03  -5.27545204e-03  -1.40765131e-01   1.68349089e-07
   -2.56431643e-02   8.03947933e-06]
 [  1.43659413e-01   2.09324688e-01   2.58702099e-01  -3.96205438e-03
   -8.21701407e-01  -4.10762196e-03   2.16924444e-01  -1.19100378e-06
   -8.11851234e-04  -9.10931975e-02]
 [  5.40588260e-01  -8.58910009e-02   6.74883366e-01  -2.28222652e-05
   -1.00970984e+00  -6.22674450e-03   2.13963583e-01  -3.66308559e-05
   -1.29487121e-03  -2.23989815e-01]
 [  3.11115384e-01  -2.53237356e-02  -4.60651936e-03  -1.72156797e-06
   -3.56501549e-01  -5.59477182e-03   3.01168799e-01  -4.31432852e-07
   -5.81870135e-03  -1.20434299e-01]
 [ -9.37874500e-11  -6.68481516e-05  -8.64796937e-02  -8.41064960e-08
   -1.82795208e-02  -1.41580343e-01   2.79866636e-01  -3.60915187e-09
   -2.63633439e-03  -2.12083691e-07]
 [ -4.98215602e-09   2.96317082e-10  -2.33615525e-02  -1.04823516e-06
   -4.79166806e-01  -7.30229840e-02   6.23385191e-01   8.96886232e-10
   -2.27186581e-04  -3.17352651e-08]
 [  9.76531567e-09  -2.54452970e-09  -1.73848865e-04   1.84295413e-06
   -5.19597173e-01  -1.20802205e-02   5.47330558e-01  -3.04661504e-11
   -3.44750447e-07  -2.82124802e-03]
 [ -1.76342141e-09  -1.39613432e-10  -2.34792130e-10   8.53472937e-09
   -2.37316474e-01  -2.76853796e-04   2.37704828e-01  -2.52099292e-19
    1.04209583e-08  -2.28991599e-08]
 [ -2.13270191e-16  -5.07178024e-16   2.40149955e-10  -2.87089033e-16
   -3.89731467e-01  -2.63498228e-14   3.89746577e-01   2.17827210e-12
    7.23946805e-11  -4.42541871e-11]
 [ -1.73181344e-20  -8.03091393e-17  -3.87701982e-10   1.21644265e-15
   -2.69605488e-01  -3.08521139e-13   2.69621253e-01  -1.34525068e-13
    2.98677055e-11   6.50648910e-11]
 [  9.21110923e-38  -5.90221846e-37  -3.38687920e-37  -3.84208865e-37
    9.16000780e-38   3.37716248e-37  -4.97746909e-37   1.42169868e-37
    7.49069049e-37   2.93718929e-37]
 [ -6.92879375e-36  -1.45778503e-37  -1.58592458e-38   4.90959603e-37
   -6.51279043e-37   4.81107286e-37  -1.13074607e-37  -7.30424309e-36
   -4.65045267e-37   3.73786119e-37]
 [ -2.97799017e-38  -2.25617035e-37  -4.25664251e-38   2.24672761e-37
    1.08412655e-37   1.20427875e-35   5.20029932e-37  -2.67033453e-37
    2.77042222e-37  -4.13800073e-37]
 [  2.89973875e-37  -3.27346012e-38  -1.90699098e-37  -1.99278498e-37
    7.24299671e-36   1.21870075e-37  -2.36034018e-37   2.03645549e-38
    9.87211925e-36  -8.90862158e-38]
 [  1.32763590e-37  -3.41754073e-37   3.16208267e-38  -5.49176088e-37
    3.27511029e-37   6.74082317e-37   1.57374136e-37  -5.61237927e-37
   -3.87174954e-37  -4.78888212e-37]
 [  7.26999562e-37  -5.98459553e-37   3.68219108e-37   2.67201161e-37
   -8.02430405e-37  -8.23845115e-38   2.27886555e-37  -3.48649381e-37
    4.65510094e-37  -8.75771703e-36]
 [  4.04869961e-18  -4.02783701e-23   3.62709682e-18   8.78305234e-19
    1.14954241e-10  -3.44105414e-16   2.60683503e-10   1.05546408e-29
   -7.87716342e-16  -4.05871031e-19]
 [  2.40811165e-02   1.30196461e-21   3.32749037e-11   1.14050181e-13
   -2.39992552e-02  -8.94474424e-03   8.95500090e-03  -9.82713260e-14
   -2.75471208e-16  -1.94836884e-05]
 [  1.07856104e-02  -2.05371093e-12  -1.85012104e-04  -3.03263843e-13
   -1.07054757e-02  -2.86961921e-08   3.64837149e-04   1.00463115e-13
   -2.05927306e-11  -4.58580729e-08]
 [ -2.27671677e-07  -3.37425643e-11   6.72741048e-03  -6.91959262e-03
   -1.85309388e-02   2.65723193e-15   1.86719373e-02   7.40134841e-13
   -5.25172394e-09   3.24229067e-14]
 [ -1.63963988e-01   3.09517342e-11   5.85017912e-02  -7.52548873e-02
   -2.11514533e-01   5.53998003e-09   4.69159007e-01   7.12628900e-10
   -1.21605463e-08   1.97634321e-07]
 [ -1.87229440e-01  -3.04863206e-04   6.39982298e-02  -6.38266578e-02
   -6.82457924e-01  -5.96581131e-08   1.03267276e+00  -1.62176555e-03
    1.21533924e-06  -6.88055195e-08]
 [ -1.45253912e-01  -1.53359681e-01   2.63049394e-01  -2.12686267e-04
   -8.77050042e-01  -9.86330211e-04   1.13678050e+00  -5.43877890e-04
    1.47311948e-05  -7.74665693e-07]
 [ -9.90455374e-02  -4.03736591e-01   1.30201733e+00  -1.73510779e-02
   -9.50869799e-01  -2.41264850e-02   5.96725702e-01  -7.63427885e-03
   -8.98147002e-03  -1.93633586e-02]
 [ -2.39481628e-01  -2.05109537e-01   6.47014856e-01   8.96152481e-02
   -1.39358306e+00  -4.04015690e-01   1.93312144e+00  -6.70035556e-02
   -6.20735213e-02  -3.91728394e-02]
 [ -7.05764055e-01  -1.82384074e-01   9.48900640e-01   1.20299332e-01
   -9.80667353e-01  -9.24026370e-01   1.62901783e+00  -1.43807679e-01
   -1.11847974e-01  -4.30407301e-02]
 [ -5.17255485e-01   3.79815660e-02   4.40822423e-01   5.98144472e-01
   -1.56353986e+00  -6.90222561e-01   1.75694644e+00  -9.70780626e-02
   -9.11552086e-02  -8.68819654e-02]
 [ -7.63954341e-01   1.17986667e+00  -5.12676120e-01   1.22046381e-01
   -4.74806041e-01  -4.52730566e-01   1.33883500e+00  -3.55483070e-02
   -1.89709842e-01  -6.86867163e-02]
 [ -1.21016705e+00   1.00781250e+00   4.99418080e-01  -1.83806255e-01
   -2.96851218e-01  -4.92085606e-01   9.19997096e-01  -6.94863945e-02
   -1.49728879e-01  -3.19983065e-02]
 [ -1.14207339e+00   2.15534329e+00   8.39654028e-01  -7.31235981e-01
   -4.45672512e-01   1.30991973e-02   5.12439966e-01  -1.23671375e-01
   -1.32839680e-01  -2.48285029e-02]
 [ -8.65731001e-01   1.55460572e+00   7.56468296e-01  -3.73487473e-01
   -1.18810689e+00   3.77887160e-01   3.22393358e-01  -9.19512510e-02
   -2.95104295e-01  -7.52599612e-02]
 [ -7.22796977e-01   6.99494898e-01   1.49741992e-02  -6.08285069e-01
   -2.23127618e-01   7.17918217e-01   1.13631070e+00  -1.45480102e-02
   -2.68618435e-01  -1.30487541e-02]
 [ -3.63560885e-01   2.49505803e-01   1.58993155e-02  -6.73479021e-01
   -4.28215593e-01   7.54900813e-01   5.68422258e-01  -4.55864802e-06
   -1.61883175e-01  -4.12959717e-02]
 [ -2.57766277e-01   6.74656272e-01  -3.96145970e-01  -2.91262448e-01
   -4.83971894e-01   7.39238620e-01   7.84725785e-01  -4.64903587e-06
   -4.32206571e-01  -4.00064364e-02]
 [ -3.14101189e-01   2.02918332e-03   1.79586664e-01  -1.71733610e-02
   -8.29585016e-01   1.16297640e-02   1.34128153e+00   2.36585634e-04
   -3.22972611e-02  -3.00413696e-03]
 [ -1.16546772e-01  -7.80156478e-02   2.41860837e-01  -4.76685017e-02
   -6.25530362e-01  -7.20457792e-01   1.53666937e+00  -9.03000357e-04
   -1.06828526e-01  -1.57222222e-03]
 [ -6.34412095e-02  -3.37024778e-02  -3.91110852e-02  -4.00286354e-02
   -6.02822602e-01  -6.37561917e-01   1.56518018e+00  -1.47558778e-04
   -1.19702499e-02  -1.55473917e-05]
 [ -4.91102859e-02  -5.06343131e-05  -4.58773319e-03   1.90369720e-09
   -4.28799599e-01  -3.53431791e-01   8.68234456e-01  -8.37999288e-12
   -3.27016562e-02  -8.14045498e-11]
 [ -6.04890846e-03  -9.66907828e-06   2.43142456e-01  -1.82127004e-11
   -1.10498272e-01  -7.25214705e-02  -1.05150618e-01  -2.53209398e-11
   -2.10707802e-02  -1.01410342e-13]
 [  1.10703294e-17   9.14457731e-20   1.13587521e-01   1.09189739e-21
    3.73947495e-09  -3.96585045e-18  -1.11687146e-01   2.50440732e-28
   -5.34244123e-07  -8.99318000e-20]
 [  3.35427804e-37  -1.59228760e-38  -4.05998630e-37   1.44849599e-37
   -7.34273669e-37   9.51025152e-36  -6.11849688e-37  -5.57159857e-38
    2.38020678e-37   2.84681204e-37]
 [ -2.89884035e-36  -3.89946341e-37   2.10613052e-37  -2.16567920e-37
   -4.14736544e-37   1.27081583e-37  -3.03374660e-37  -9.69732168e-38
   -1.34111079e-37  -4.19556025e-37]
 [ -5.92772523e-37  -4.24830646e-37   1.92515473e-37  -1.02381422e-37
   -4.34683950e-37   4.98052684e-37  -3.33981171e-37  -6.50743546e-37
   -2.14865017e-38   1.17250521e-37]
 [ -3.44353156e-37  -7.16167099e-38  -2.24308334e-37  -8.02429575e-38
   -5.78806667e-37   3.87269929e-37   4.74174110e-37   1.84820550e-37
   -3.61228467e-37  -3.81702088e-37]
 [ -5.97789098e-14   1.55535759e-02   1.10547592e-06  -2.18185983e-06
   -1.55797514e-10   9.39890798e-14  -8.93632008e-04  -3.07690917e-22
   -1.25310970e-02   4.92040012e-19]
 [  4.95423675e-02   3.18186986e-03  -8.57541090e-06   2.99518973e-07
   -4.85026538e-02  -3.25082568e-03   1.37201156e-02  -1.94558579e-05
   -2.16328911e-03  -5.49066113e-04]
 [ -5.90761006e-02   1.04046116e-07   7.26225181e-03  -2.99297199e-02
   -2.45718416e-02   1.73899800e-01  -9.93299261e-02  -1.67271299e-08
   -3.01450967e-07  -1.75239329e-05]
 [ -5.26156783e-01  -5.54078892e-02   1.49934053e-01   8.65208864e-01
   -3.06883119e-02  -3.01900089e-01   5.17198257e-02  -3.47717410e-09
   -1.72655545e-02  -5.75971580e-06]
 [ -8.70962143e-01  -1.84468757e-02   2.22596332e-01   5.49539804e-01
   -6.71236515e-01  -1.46341994e-01   1.23855138e+00  -1.54927978e-03
   -1.06074221e-01  -2.31762697e-05]
 [ -1.14431441e+00  -1.52843043e-01   3.37700337e-01   1.06741142e+00
   -6.86355174e-01  -1.03346467e-01   1.36582994e+00  -1.19861372e-01
   -1.67650416e-01  -2.73678997e-05]
 [ -3.48615736e-01  -3.61391127e-01   7.84746587e-01   1.45188701e+00
   -2.02300119e+00  -1.70836285e-01   1.35131025e+00  -4.06243235e-01
    8.74755234e-02  -5.27375378e-03]
 [ -6.88769996e-01  -3.91544431e-01   2.65446496e+00   6.65683389e-01
   -2.59840083e+00  -3.78506742e-02   6.73928082e-01  -1.61938265e-01
    2.45738178e-01  -8.16459954e-02]
 [ -1.60030201e-01  -4.48480248e-01   1.09904134e+00   1.06562054e+00
   -1.18502915e+00   5.52610196e-02   1.39140129e+00  -6.00642085e-01
    2.22148314e-01  -2.20262006e-01]
 [  4.21849877e-01  -1.28427613e+00   1.48853135e+00   1.45484197e+00
   -1.36702061e+00  -3.74534339e-01   8.15517008e-01  -1.00544679e+00
   -2.78583355e-02  -3.00141722e-01]
 [ -6.62100673e-01   1.19718201e-01   1.29715574e+00   2.44022727e+00
   -2.93048191e+00   5.42012513e-01   8.36583376e-02  -4.09172803e-01
    1.43883795e-01  -4.45921510e-01]
 [  1.75246537e+00   2.33483344e-01   1.67525733e+00   1.98086798e-01
   -3.63411736e+00   7.94766128e-01   1.06715286e+00  -5.91225028e-01
    3.70708555e-01  -8.53374064e-01]
 [  7.74703315e-03   9.87618044e-02   1.05804968e+00   1.43902731e+00
   -2.00818920e+00  -2.22128466e-01  -2.72796601e-01  -5.49242854e-01
   -3.30082655e-01  -1.15406513e+00]
 [  2.38508731e-01  -5.70343137e-01   4.27593678e-01   1.76230538e+00
   -1.85254252e+00   9.84560013e-01   1.18294680e+00  -4.29476142e-01
    3.46484035e-01  -1.27078784e+00]
 [  3.62268597e-01   1.24433410e+00   1.14732087e+00   6.90288067e-01
   -1.08984375e+00  -3.23886633e-01   4.47971225e-02  -4.06241149e-01
    1.43046305e-01  -1.00348592e+00]
 [ -7.10790098e-01   1.16485685e-01   1.02218950e+00   3.85430783e-01
   -8.23808193e-01   7.14158952e-01   2.26171657e-01  -5.96338958e-02
    6.96743131e-01  -3.02118778e-01]
 [ -2.52875060e-01  -1.16673052e+00   1.24554902e-01   1.50905848e+00
   -1.09721088e+00   7.71798372e-01   9.27799702e-01  -3.12014557e-02
    1.32727885e+00   2.71114260e-01]
 [ -6.37712538e-01  -4.58371282e-01  -3.55564803e-03   1.14205575e+00
    1.50058538e-01   1.21393025e+00   9.52221453e-01  -9.07138959e-02
    3.71681824e-02  -8.81294459e-02]
 [ -3.44374180e-01  -3.88850451e-01  -4.05349880e-01   2.18301368e+00
   -4.18654382e-01   1.03908229e+00  -1.55626086e-03  -7.87366405e-02
   -4.73128892e-02  -6.75884783e-02]
 [ -8.36396039e-01  -8.46857905e-01  -5.42666018e-01  -1.50992513e-01
   -1.51886359e-01   1.34731448e+00   7.73378372e-01  -1.27633855e-01
    7.54954815e-01  -8.94949678e-03]
 [ -2.80652285e-01  -6.84414685e-01  -1.33755296e-01  -1.20620418e+00
    4.96618241e-01   1.01415718e+00   7.64619589e-01  -6.99536651e-02
    1.18372333e+00   2.20952970e-05]
 [  1.70975432e-01  -2.32322708e-01  -4.54787970e-01  -8.51723671e-01
    3.99872392e-01  -1.91963047e-01   1.30850375e+00  -3.95929886e-11
    5.67614377e-01  -1.21954345e-05]
 [  1.43096343e-01  -2.63891548e-01   1.15912043e-01  -1.99094459e-01
   -2.27430701e-01   2.84946561e-01   5.19704580e-01  -8.82167256e-11
   -3.31935197e-01  -1.21159064e-05]
 [  1.55038789e-01  -1.21330656e-01   1.01612106e-01   6.18055052e-11
   -3.09314285e-09   8.41988981e-01  -9.78124022e-01   2.88089627e-15
   -6.47909590e-04  -1.38274846e-16]
 [ -3.17541599e-05  -1.24257028e-01  -3.51253288e-06   4.22606394e-19
    1.73881253e-16   1.18564434e-01   5.85359335e-02  -5.92585559e-23
   -2.28634030e-02   1.39453687e-18]
 [  3.45599886e-38   6.95087086e-37   2.21848618e-37   6.03492299e-37
    2.43934584e-37  -1.13029227e-37   4.97795921e-37   1.12616416e-36
    3.17375188e-36  -5.05696285e-37]
 [  5.88754765e-37  -1.56048687e-37   5.23254039e-37   3.51988776e-37
   -1.97140318e-37   5.32363197e-37  -4.52233542e-37  -1.68523606e-37
   -2.12511194e-37  -7.02520380e-37]
 [ -4.03306674e-20  -2.11052074e-22   9.60579662e-15  -4.41042949e-12
   -1.64192431e-19   1.90472898e-12  -3.65336923e-26  -1.05099528e-27
    8.07200230e-18  -1.24249394e-17]
 [ -5.36249331e-07   4.55516651e-02  -1.83837823e-04   6.13640202e-03
    6.26446117e-11  -7.00113084e-03  -1.10732345e-02  -1.57358022e-15
   -2.86511462e-02  -1.18182653e-09]
 [ -1.95953958e-02   1.34717692e-02  -4.10755984e-02   1.46889672e-01
    8.00573616e-06  -3.95344198e-02  -4.25061174e-02   1.51626718e-05
   -1.12796584e-02  -1.00384714e-05]
 [  1.54376869e-06   3.94045971e-02  -2.92234480e-01   3.02579463e-01
    7.28676021e-02  -2.29043826e-01   4.02898267e-02  -9.75674111e-03
   -4.32088897e-02  -1.10393094e-05]
 [ -9.34709787e-01   5.67383409e-01   5.44977725e-01   1.57067490e+00
    1.96287900e-01  -1.29909706e+00   3.26451927e-01  -5.73845029e-01
   -4.80283201e-01  -1.42330760e-02]
 [ -1.25883031e+00   4.23784912e-01   1.78006136e+00   1.35784805e+00
   -1.12660646e-01  -5.49479604e-01   1.42319694e-01  -6.72658026e-01
   -8.40386629e-01  -5.47115272e-03]
 [ -7.46428907e-01   3.72418046e-01   1.16011846e+00   1.57319140e+00
    1.94477528e-01   6.37221694e-01   1.24234393e-01  -1.00494206e+00
   -2.60166049e-01  -1.30056530e-01]
 [  1.50350139e-01   6.81239128e-01   5.97988605e-01   1.18154919e+00
   -1.18805826e+00  -1.14027560e+00   1.03747511e+00  -9.59219694e-01
    6.35896087e-01  -4.69403803e-01]
 [  7.15000927e-01   3.55143368e-01   1.03977644e+00   7.74439752e-01
   -8.53616178e-01  -2.64463753e-01   1.45137474e-01  -1.28161132e+00
    7.34347701e-01  -5.48857152e-01]
 [  5.89024365e-01   1.12456501e+00   8.76444340e-01   1.37344170e+00
   -1.38591123e+00   5.08490980e-01   2.20050097e-01  -1.92978549e+00
    5.17678618e-01  -4.42279369e-01]
 [  1.77401721e+00  -1.08720052e+00   1.02835393e+00   1.62653971e+00
   -5.40061772e-01  -1.83089841e-02  -2.31572509e-01  -1.79752398e+00
    3.19298238e-01  -1.04183984e+00]
 [ -6.72551155e-01   2.43425518e-01   4.07364070e-01  -2.66580850e-01
    1.00883029e-01   3.93726110e-01   1.44736424e-01  -5.39496779e-01
    9.19245183e-01  -7.84964561e-01]
 [  1.26640692e-01   5.98013699e-01   4.87923294e-01   1.61696076e+00
    3.86436164e-01  -2.75597423e-01   6.66342020e-01  -1.25726545e+00
   -5.89669943e-02  -3.87264490e-01]
 [ -3.88724953e-01  -7.45214403e-01   4.46100682e-01   8.29790056e-01
   -1.41121423e+00  -8.14824998e-01  -6.29909396e-01  -1.85972404e+00
    9.24668014e-01  -9.95570123e-01]
 [  1.05380774e+00  -8.55640545e-02  -5.22952862e-02   6.94499388e-02
   -5.77273667e-01   1.32016587e+00   3.08531374e-01  -1.10497034e+00
    6.00309789e-01  -6.83415532e-01]
 [ -1.28174984e+00   9.93607223e-01   1.16540253e+00   1.68603754e+00
    5.79563454e-02  -6.05503023e-02  -6.60926819e-01  -1.32166243e+00
    1.03023148e+00  -3.24698418e-01]
 [  1.32479882e+00  -2.20725670e-01   1.56762257e-01   9.29903686e-01
    9.74907994e-01   1.19468701e+00   1.46627712e+00  -1.05382597e+00
    1.08867550e+00  -2.01903239e-01]
 [  1.39155045e-01   2.90390700e-01   4.20235634e-01   1.01480258e+00
   -4.22804534e-01   1.27645230e+00  -4.76077124e-02  -7.87186682e-01
    9.17827249e-01  -4.77491677e-01]
 [  1.43712774e-01  -9.27236527e-02  -3.87173206e-01   1.91597641e-01
    1.15609992e+00   7.50790894e-01  -2.11348116e-01  -2.95451313e-01
    1.62535667e-01  -1.27366793e+00]
 [  1.98694885e-01  -6.60800487e-02   1.81241781e-01   2.59636074e-01
    1.50491381e+00  -8.73065650e-01   2.87679017e-01  -3.58814448e-01
    7.94876397e-01  -5.23496032e-01]
 [  3.19914192e-01  -1.19847193e-01  -8.48984182e-01  -6.35684311e-01
    1.79953480e+00   8.87214959e-01   2.75278896e-01   2.50521034e-01
    1.11545641e-02  -9.29105103e-01]
 [  2.38605320e-01  -4.37793881e-01  -4.65370685e-01   4.17701989e-01
    1.83619511e+00   6.27689540e-01   1.56326354e+00  -2.43923411e-01
    1.33516192e+00  -4.65818554e-01]
 [ -8.66626680e-01  -7.23613143e-01  -1.04769433e+00  -1.42410100e+00
    1.90443468e+00   9.86174285e-01   1.64978826e+00  -4.88624303e-03
   -2.52330273e-01  -9.90706403e-03]
 [ -1.03051698e+00  -1.43552220e+00  -8.20026934e-01  -2.55873054e-02
    1.10352886e+00   1.87629044e+00  -1.95691437e-01  -1.19515840e-04
    9.61531281e-01  -5.86005114e-03]
 [ -1.28848674e-02  -9.29733276e-01   5.01722097e-02  -1.63302233e-04
   -8.94893110e-02   1.11256289e+00  -7.03611076e-01  -2.07696485e-06
    9.40503895e-01  -2.34807476e-06]
 [ -3.11040407e-04  -2.33224779e-01  -1.11517692e-02  -3.46964180e-10
   -1.76818445e-01   2.27539584e-01  -1.02151118e-01  -6.65870470e-10
    2.40707189e-01   6.18319007e-10]
 [  4.93217932e-11  -1.74884453e-01  -1.10215154e-02  -1.63020605e-14
   -5.87742543e-05  -7.24883005e-02   2.23983154e-01  -3.90425953e-20
    1.25422804e-02  -5.00972660e-16]
 [ -4.50968607e-37  -9.30377878e-38  -2.39949201e-37  -4.52901278e-37
   -5.83878426e-37   1.53914857e-37   5.62600895e-36   1.43702965e-35
   -1.11823223e-36   4.05901234e-37]
 [  6.30432296e-37   6.46225042e-38  -9.42915576e-38  -1.46906990e-35
    5.80565442e-37   7.21609106e-36  -2.14280642e-37  -4.81836813e-37
   -4.40148431e-37   3.61003811e-37]
 [ -8.51998571e-03   8.31179414e-03   2.18017977e-02  -1.59935784e-02
    6.41423459e-12  -4.40030172e-03   9.57943406e-03  -8.40211553e-17
   -6.96960697e-03  -3.96714106e-10]
 [ -7.13485330e-02  -4.73741355e-04   1.37730077e-01   7.18200445e-01
    3.82825322e-02  -6.59762546e-02  -5.56550801e-01  -1.80886775e-01
   -7.93122780e-03  -1.65433809e-03]
 [ -2.46397220e-03   1.60767168e-01   2.55432457e-01   1.08680403e+00
    2.61923689e-02  -9.26157892e-01   1.78911880e-01  -4.01000738e-01
   -1.65189281e-01  -6.13536395e-04]
 [ -1.17371154e+00   1.35418379e+00  -2.97176301e-01   8.79615664e-01
    4.13004160e-01  -8.83668661e-01  -9.58278060e-01   8.57218921e-01
   -1.08376646e+00  -4.22499403e-02]
 [ -6.02480233e-01   1.02086079e+00   5.76586008e-01   9.25996482e-01
   -6.07249379e-01  -6.92260206e-01  -2.64298320e-01   5.91823578e-01
   -7.87442923e-02  -3.25483114e-01]
 [  4.11850721e-01  -4.73327398e-01   5.38215458e-01   7.60953844e-01
   -2.34810427e-01   2.41120324e-01  -3.64466220e-01   1.38397470e-01
    3.32168788e-01  -1.15079291e-01]
 [  5.78198850e-01  -1.56398582e+00  -1.36641279e-01   7.06060290e-01
    2.17834398e-01   5.42912409e-02   6.62743568e-01   1.48518038e+00
    5.56181073e-01  -3.49155366e-01]
 [ -2.31375188e-01  -1.01967943e+00   1.28722107e+00   3.48432511e-01
    6.87930107e-01   1.10777281e-01  -2.72514671e-01   6.09175384e-01
    2.44093984e-01  -9.18949127e-01]
 [  1.31983209e+00  -1.12563932e+00   1.06166005e-02   6.48669422e-01
   -6.37084961e-01   1.41970503e+00   2.09804937e-01   3.03811908e-01
    4.10362959e-01   2.04502083e-02]
 [  3.66800398e-01   1.41093493e-01   5.48977852e-01   5.96948147e-01
    6.46335125e-01   5.48567533e-01  -3.94059718e-01  -3.88309717e-01
    8.84951770e-01   7.55671144e-01]
 [  1.54933214e-01  -1.03247178e+00   1.55404139e+00   1.18826640e+00
    3.45536828e-01   6.97299898e-01  -4.73076701e-01   4.10617948e-01
    1.32473469e+00   1.28119075e+00]
 [  1.77382514e-01   1.68187976e-01  -5.13234913e-01  -5.66517971e-02
   -4.82593030e-01   4.62109596e-01  -1.77060354e+00   4.46000278e-01
    2.92078853e-01   2.39960641e-01]
 [ -3.49348813e-01   6.08331859e-01   1.58866286e+00   5.82102537e-01
    8.06846142e-01  -4.73772377e-01   2.90303171e-01   2.73096353e-01
    1.19622350e+00   4.97497559e-01]
 [  1.30163038e+00   6.61810517e-01   2.12698296e-01   7.47268021e-01
   -4.07438397e-01   3.32783341e-01  -6.36306107e-01  -1.25443220e+00
    2.96333611e-01   1.60168529e-01]
 [ -2.15384275e-01   1.23112701e-01   9.77858305e-01   1.26177907e+00
    4.79408920e-01   1.00235510e+00   2.71289140e-01   1.20814905e-01
    6.92922711e-01  -6.59794271e-01]
 [  1.16163456e+00  -1.17008126e+00   3.89747441e-01  -3.66178006e-01
   -7.69043505e-01  -1.11855336e-01   3.86249602e-01  -1.30617225e+00
    4.06028599e-01  -8.60060036e-01]
 [ -3.13041359e-01  -3.98918241e-02   7.73915410e-01   2.50791997e-01
    1.31001666e-01   1.09651677e-01  -3.40126336e-01  -2.95924276e-01
   -2.01942697e-01   8.97215307e-02]
 [  5.04620790e-01   1.15778893e-01   1.97224393e-01   4.78276134e-01
    3.60415250e-01   6.68211728e-02   8.84591520e-01  -1.48484242e+00
    4.49135482e-01   1.09532569e-02]
 [ -1.85547501e-01   8.18829656e-01   6.75944090e-01   5.39155483e-01
    1.31378806e+00   1.20808053e+00   7.58242488e-01  -1.69039679e+00
    7.97865570e-01   3.70229721e-01]
 [ -3.03829819e-01   6.17337227e-01   2.35745728e-01  -2.35498399e-01
   -6.49317503e-01   5.96747398e-01   8.25834155e-01  -8.71382594e-01
    6.34429872e-01  -7.53049195e-01]
 [  3.82194102e-01   1.05400324e+00   6.24987297e-02   6.06133282e-01
    1.00458376e-01   1.07680082e-01  -5.22063076e-01  -5.93303442e-01
   -2.25698501e-01  -1.17294443e+00]
 [ -9.42779064e-01   4.36751217e-01   2.53667861e-01  -1.07195008e+00
    1.58112586e+00   1.24293387e+00   1.96327686e+00  -3.15514445e-01
   -2.68673956e-01  -5.03270209e-01]
 [ -1.57495952e+00  -1.15418002e-01  -8.94071579e-01  -3.30394320e-02
    6.78201795e-01   1.43885183e+00   6.58683240e-01  -1.13386326e-02
    1.47547519e+00  -1.10062599e-01]
 [ -3.11300397e-01  -1.19831181e+00  -8.05931091e-02  -3.88559066e-02
   -5.06694138e-01   1.49419856e+00   9.57628265e-02  -9.85941850e-03
    1.44511163e+00  -7.55389854e-02]
 [ -1.09088063e-01  -5.09588361e-01  -2.69394629e-02  -1.52524024e-07
   -1.81345090e-01   2.89551824e-01   4.58227605e-01  -5.92735421e-04
    2.59602636e-01  -2.68530427e-03]
 [ -1.19170472e-01  -2.47792438e-01  -1.40254349e-02  -2.02495620e-08
    1.30953231e-06   6.27914295e-02   3.17835003e-01   9.51496659e-08
   -1.84140503e-02   1.90850251e-08]
 [ -4.80482598e-38   9.24955638e-38  -6.41257943e-37  -1.06679233e-35
   -5.04048448e-37  -4.63213714e-37  -2.34187645e-37  -1.97877154e-37
    1.65340340e-36  -5.64379526e-37]
 [  2.42227856e-07   4.78956004e-08  -1.64477830e-03   1.72895491e-02
   -7.22628897e-07  -1.34018934e-04  -2.59289340e-10  -1.67169383e-05
   -4.84407705e-04  -1.77636668e-02]
 [ -5.38985953e-02  -1.81842089e-01   2.58710720e-02  -1.82214409e-01
   -1.94042325e-02  -1.46719133e-02  -1.52396383e-02   3.90227735e-01
   -1.19029777e-02  -2.23677568e-02]
 [ -9.02580268e-06  -8.52585062e-02  -8.11649393e-03   5.32507122e-01
   -2.55242109e-01  -6.20169580e-01  -2.95240462e-01   9.47691143e-01
   -6.04425408e-02  -4.38648798e-02]
 [ -1.00576706e-01   9.65793431e-02   1.79752782e-01   5.08921385e-01
    3.47149760e-01   3.75463488e-03   4.42277968e-01   9.58877861e-01
   -6.49687707e-01  -2.34952182e-01]
 [  3.66752339e-03   8.54142308e-02   3.96655276e-02   6.87092483e-01
    7.22675085e-01   1.73210323e-01  -2.08355576e-01   1.58603251e+00
   -1.88141182e-01  -1.70445740e+00]
 [ -3.00128460e-01  -2.90217131e-01  -6.16676807e-01   5.54909706e-02
   -1.38535887e-01  -2.45046049e-01  -9.00615156e-01   1.68292987e+00
   -1.14657676e+00  -1.96951464e-01]
 [  6.70194209e-01  -8.40910316e-01   7.71612585e-01   4.64403898e-01
   -2.97099143e-01   1.61886260e-01   6.26194596e-01   6.78739011e-01
    6.28243685e-01  -1.02714264e+00]
 [ -4.30269808e-01  -7.69819975e-01   4.16916072e-01   6.20611489e-01
    1.48038715e-01  -1.16831355e-01  -5.06767869e-01   9.08667088e-01
    1.09018721e-01  -4.02155817e-01]
 [ -8.02979693e-02  -2.02770352e+00  -1.26094747e+00   6.73278049e-02
    8.18772495e-01  -1.21968615e+00  -5.81073575e-03  -3.01390346e-02
   -4.85171020e-01   4.06803578e-01]
 [ -1.00485027e+00   6.08812630e-01   1.10733688e+00   7.98965752e-01
   -6.95383549e-01   4.21679281e-02  -1.30716968e+00   1.15438056e+00
   -5.67328870e-01  -2.19235122e-01]
 [  1.61397505e+00  -1.69803113e-01   8.96139920e-01   1.29357755e+00
    1.91678032e-01   2.73291506e-02  -8.34617138e-01   1.71318197e+00
    8.42001736e-01   1.52273297e+00]
 [ -1.08642209e+00  -4.75263417e-01  -2.66449153e-01  -1.15541548e-01
   -1.17982268e+00   1.94358211e-02   1.61486283e-01   8.47413003e-01
    1.49442077e-01  -1.29330918e-01]
 [  1.45765424e+00  -1.91398168e+00  -2.17321530e-01  -5.80125675e-02
   -1.21774209e+00  -5.94732165e-01  -1.26871288e+00   3.27617116e-02
   -3.59169960e-01   5.92085898e-01]
 [  1.08730960e+00  -5.89219093e-01  -4.30902451e-01   3.53690952e-01
   -4.72015887e-01   6.04274035e-01  -2.66771793e-01  -1.61973834e-01
   -1.35104492e-01   1.23928392e+00]
 [ -7.27120042e-01  -7.47674644e-01   4.15295899e-01   5.66714942e-01
   -1.35145807e+00  -3.04962516e-01  -3.82959217e-01   1.61161438e-01
    7.99612582e-01   1.34112507e-01]
 [  5.85575938e-01  -6.18448138e-01   8.62293541e-01   7.76764154e-01
   -7.84300506e-01  -1.38607338e-01  -8.27887505e-02   1.30662477e+00
    5.75789452e-01   1.44519091e+00]
 [  8.32632005e-01  -1.69033766e-01   5.09044468e-01   4.04661298e-01
   -1.03284955e-01   9.36714113e-01  -7.99585581e-01   6.66358531e-01
    1.25166011e+00   1.35050666e+00]
 [  1.41237795e+00   1.57413304e-01  -5.56870162e-01   8.13831985e-01
   -9.47477669e-02   5.99670887e-01  -6.76966369e-01   4.55103695e-01
   -1.22983165e-01   1.17923963e+00]
 [  4.05548632e-01  -8.28884363e-01  -1.05382822e-01  -4.81743276e-01
   -4.40246254e-01   5.87544441e-01  -7.11740255e-01   4.74609770e-02
    9.28957462e-01  -1.82927534e-01]
 [ -2.85971344e-01  -1.53195846e+00  -7.56616652e-01   9.99465346e-01
   -1.41820252e+00   6.70768678e-01   7.44832978e-02  -2.23357588e-01
    1.04406081e-01  -8.27417821e-02]
 [ -2.90477842e-01   3.42173904e-01  -1.13961197e-01  -3.97429079e-01
    1.84500322e-01  -7.47603595e-01  -1.82747614e+00   6.07321143e-01
   -7.03728318e-01   7.55144417e-01]
 [  1.94213521e+00   3.34893316e-01  -2.88520724e-01   6.67191744e-01
    2.11787775e-01   1.06691563e+00   1.14302322e-01  -3.72138113e-01
    2.73030877e-01  -4.86666918e-01]
 [  9.16656375e-01   4.11190718e-01  -1.29413331e+00  -8.91667753e-02
    1.31722951e+00   2.63469607e-01   4.62623447e-01  -9.89586771e-01
    1.06030798e+00  -1.24650919e+00]
 [ -2.49990511e+00   6.97442591e-01  -4.06839937e-01   6.68393597e-02
    4.10932779e-01   2.01353884e+00   2.98269957e-01   6.41272739e-02
    2.10268661e-01  -3.51003528e-01]
 [ -2.02808857e+00  -5.41776419e-01   2.00554710e-02  -1.80579349e-01
   -5.64966261e-01   8.98091972e-01  -5.94932325e-02  -1.08589701e-01
    1.40819907e+00  -4.83738557e-02]
 [ -1.08294785e+00  -1.48111343e-01  -3.00308559e-02  -1.73830244e-06
    7.66611755e-01   1.17461109e+00  -3.35953623e-01  -4.15790565e-02
    7.71255553e-01  -1.63179278e-01]
 [ -4.01758105e-01  -2.47018361e-11  -2.59369776e-10   2.86889579e-09
   -1.18299806e-03   5.77291071e-01  -9.99524072e-02  -1.07523427e-07
   -1.40169216e-02  -3.43123105e-07]
 [ -6.51369534e-37   2.29198327e-37   2.42194664e-37   3.73951629e-38
    1.46289425e-35  -1.16518976e-37  -4.42102536e-37  -3.78707479e-37
   -6.81113069e-37   3.98915817e-38]
 [ -1.31557084e-04  -9.14270133e-02  -2.78568305e-02   2.02785760e-01
   -9.70625144e-04  -1.04775815e-03  -3.73093911e-09   1.05136476e-01
   -3.99283953e-02  -1.36691242e-01]
 [ -6.00603244e-07  -4.68770295e-01   4.47113335e-01  -4.58387733e-01
   -2.03685872e-02  -1.32209986e-01  -5.78267276e-02   7.08301246e-01
   -2.49829777e-02  -6.99063092e-02]
 [  1.04277469e-05  -1.16765037e-01   3.02478522e-01  -2.02123135e-01
    2.07285061e-01  -7.47675896e-01  -4.78264391e-01   1.64984643e+00
   -1.83503598e-01  -3.42166364e-01]
 [ -4.68574047e-01   2.89121628e-01   1.56945121e+00   1.17558169e+00
    6.53341651e-01  -1.99688017e+00   4.87430573e-01   2.11547717e-01
    2.16025770e-01  -9.44108367e-01]
 [ -5.41717410e-01  -8.15343916e-01   1.34641504e+00   1.42816949e+00
    1.29514587e+00  -1.94836125e-01   6.04259312e-01  -5.54780126e-01
   -2.11683109e-01  -1.79245949e+00]
 [  4.62406754e-01  -1.02669692e+00   8.99520695e-01   4.98780668e-01
    6.01129048e-02  -2.32584048e-02  -1.99231350e+00   1.99862942e-01
    1.55733642e-03  -5.14832318e-01]
 [  1.58736020e-01  -7.13917255e-01  -6.58805668e-01   1.35558173e-01
    1.47748733e+00   7.46344447e-01   2.41544396e-01   8.86914790e-01
   -6.68925405e-01  -5.49430430e-01]
 [ -2.43876147e+00  -1.75292671e+00   6.03474021e-01  -1.10987879e-01
   -4.19157773e-01   1.15352213e+00  -2.11187661e-01   7.77126014e-01
    1.20738375e+00   3.33065808e-01]
 [  1.53510973e-01  -4.56386119e-01   8.72645199e-01   6.05620980e-01
   -9.50239003e-01  -1.04344912e-01  -9.26598370e-01  -4.80289668e-01
    2.03224495e-01  -4.56287488e-02]
 [ -2.43690625e-01   4.79443133e-01  -1.15325975e+00  -3.41260582e-01
   -3.93013656e-01   1.84110105e-02  -4.27067056e-02   5.58812916e-01
   -2.01339364e-01   2.47485340e-02]
 [ -6.92271590e-01  -1.98147476e-01   2.38478035e-01  -1.18462825e+00
   -5.64741194e-01   2.62327284e-01  -9.99906063e-02   2.16774404e-01
    4.70276326e-01  -2.62485027e-01]
 [ -3.17069590e-01   2.42518976e-01  -8.47610831e-01   1.41798484e+00
   -4.25879747e-01  -2.92778522e-01  -4.86921370e-01   9.31858301e-01
   -1.56018770e+00   9.27181244e-01]
 [  8.17994475e-01  -3.05529177e-01   1.54167306e+00  -8.11979055e-01
   -9.22855556e-01  -3.56168076e-02  -5.84407806e-01  -3.33958685e-01
    1.07830203e+00   9.14316297e-01]
 [  4.28498834e-01   2.00604126e-02   1.40582070e-01   1.17101490e+00
    2.39975587e-01   7.39335358e-01   4.12461698e-01   7.30133951e-01
   -3.43336403e-01   1.14489639e+00]
 [  1.23406909e-01   4.59684961e-04   3.37069273e-01   1.83292377e+00
   -3.56034517e-01   4.68241334e-01  -5.35460234e-01   9.84712839e-01
    1.44964361e+00   1.17154384e+00]
 [  2.12205961e-01   2.89552480e-01   1.19588697e+00   6.42108396e-02
    2.85735130e-01   7.28513300e-01  -3.85501415e-01   7.58066952e-01
    4.66853321e-01   1.62361026e+00]
 [  2.01118827e+00  -3.98361295e-01  -4.95951653e-01   3.24852228e-01
    4.10244226e-01   1.25575334e-01   4.80604261e-01   1.60501897e+00
   -8.53687942e-01   8.49488914e-01]
 [ -5.65582633e-01  -1.54060793e+00  -6.03320777e-01   1.03483267e-01
   -2.28460714e-01   1.28070936e-01  -4.96214747e-01   8.58128428e-01
    5.62119603e-01   2.49383301e-01]
 [  3.28829199e-01   3.89572740e-01   4.61732119e-01  -2.91962117e-01
   -1.44584954e+00  -4.56156135e-01  -1.15306449e+00  -4.34168935e-01
   -5.36011934e-01  -1.87828429e-02]
 [ -2.31139064e-01   7.44167387e-01  -7.76561439e-01   4.57499437e-02
    9.21349227e-01   4.74701136e-01  -7.83007979e-01   1.07393706e+00
    4.14688557e-01   9.11036491e-01]
 [  2.84535587e-01   4.29904073e-01   3.45730543e-01  -3.88170332e-01
   -3.40874106e-01   1.77094877e-01   7.69747615e-01   5.88227034e-01
    1.09590948e+00   1.52011096e-01]
 [ -1.51487797e-01  -1.78399220e-01   9.21394587e-01  -8.71370912e-01
    6.97368562e-01   1.10294092e+00  -2.04285920e-01   4.96684968e-01
    4.56490755e-01  -1.10641137e-01]
 [  6.50639057e-01  -1.51190862e-01  -2.18762136e+00  -1.01979733e-01
    6.20735407e-01   6.70660496e-01  -1.07250071e+00   2.70584345e-01
    3.91705967e-02   1.46533668e-01]
 [ -7.27319837e-01  -1.67118084e+00  -1.42095816e+00   4.44325984e-01
    1.10023522e+00   1.19653058e+00   1.37822616e+00  -3.90560692e-03
    1.76178777e+00  -4.01021898e-01]
 [ -1.98292351e+00  -8.17360222e-01  -1.85934409e-01  -1.16928592e-01
   -4.71761614e-01   2.56746721e+00  -3.22182506e-01  -1.79748684e-01
   -2.59089947e-01   2.82458290e-02]
 [ -9.75600898e-01  -5.68057522e-02  -6.43531606e-02  -1.31852762e-03
    8.76157284e-01   2.05913074e-02  -2.63921976e-01  -1.56263746e-02
    7.79349804e-01  -5.21954671e-02]
 [ -4.16920371e-02  -2.15046084e-03  -2.68817991e-02   3.15363059e-06
   -2.60021118e-03   2.24021211e-01  -1.22460686e-01  -3.11019812e-06
    2.49248818e-02  -1.10324158e-03]
 [  1.64657325e-01  -9.76424541e-09  -1.10244146e-02  -1.17436841e-07
   -6.37067528e-03  -2.00052409e-06  -1.20588881e-08  -1.42211646e-01
   -2.04329233e-04  -3.39348018e-02]
 [  1.47233027e-06  -7.39598870e-02  -2.74317358e-02  -1.31113663e-01
   -1.03720136e-01  -2.13743639e-04  -1.65953862e-10   5.68930030e-01
   -3.43154930e-02  -1.37798160e-01]
 [  6.48225620e-02  -3.92055094e-01   2.17708379e-01  -4.10070449e-01
    4.21616733e-01  -1.18872337e-01  -4.95797172e-02   6.50347710e-01
   -7.28715584e-02  -2.80385971e-01]
 [  3.04202378e-01  -6.11912496e-02  -2.50806302e-01   1.67827666e-01
    1.67810217e-01  -7.08686173e-01  -4.62015688e-01   2.02025914e+00
    2.14045420e-01  -1.32435215e+00]
 [ -5.54747701e-01   8.23606178e-02   1.34304702e+00   1.31025720e+00
    3.73996228e-01  -2.48108649e+00   5.15194297e-01   7.36708999e-01
    8.01609993e-01  -8.31550598e-01]
 [ -4.31166649e-01  -3.72441232e-01  -3.80499512e-02  -1.54517800e-01
    5.98881006e-01   1.20425589e-01  -9.05519277e-02   6.71945095e-01
    3.63938361e-01  -1.09087789e+00]
 [  2.35542044e-01  -1.31325221e+00  -4.49938059e-01   1.82039469e-01
    8.17947865e-01   7.77526423e-02  -1.21171224e+00   1.45598888e+00
    1.34360111e+00  -1.51336826e-02]
 [ -7.31502622e-02  -5.57471849e-02   9.31391641e-02  -3.94629836e-01
   -4.44855034e-01  -1.27929759e+00  -4.55946326e-01   1.16378164e+00
   -6.54108942e-01  -4.97723132e-01]
 [  1.99207753e-01  -1.14610672e+00  -8.23354900e-01   3.39092225e-01
   -3.55688870e-01   6.08617127e-01  -6.67341053e-01  -4.70548533e-02
    5.20578539e-03   2.25982055e-01]
 [  7.33631849e-01  -1.63358200e+00   3.52494836e-01  -9.21480536e-01
    8.68052602e-01  -3.00333232e-01   8.69209412e-03   1.03963947e+00
   -2.00666115e-01  -2.38526449e-01]
 [ -2.14809269e-01  -2.10449189e-01  -2.45249689e-01   2.66427904e-01
   -4.12054986e-01   1.24950445e+00  -7.47512639e-01  -6.44466802e-02
    1.19060256e-01  -3.19031551e-02]
 [  7.23176360e-01  -5.43847799e-01   8.46921802e-01   7.78746188e-01
   -6.64790034e-01  -4.43100519e-02  -1.00440395e+00   4.35129642e-01
   -3.04261204e-02  -3.08947235e-01]
 [  4.51092660e-01  -5.69757998e-01   1.34477109e-01   6.38610780e-01
    1.49403319e-01   7.10665166e-01  -8.18457454e-02   1.11892784e+00
    1.96264720e+00  -5.51128447e-01]
 [  2.34753966e-01   1.08010125e+00   3.87268990e-01   4.25820589e-01
   -8.16983223e-01  -9.41279680e-02   2.65008122e-01   1.14039958e+00
   -3.50539207e-01   7.00343132e-01]
 [  1.04641068e+00   3.66374165e-01   1.43190473e-01   1.21071112e+00
   -6.71127498e-01   2.90885359e-01  -4.72664684e-01   6.21393204e-01
    2.61322677e-01   1.99998081e+00]
 [  9.91765201e-01   1.27187297e-01  -1.03307262e-01  -9.33137298e-01
    7.51215369e-02  -3.92153382e-01  -6.51130915e-01   3.69233638e-01
    3.09659004e-01   2.05309108e-01]
 [  1.49165320e+00  -1.16933429e+00  -3.82282823e-01   8.16672206e-01
   -1.47204447e+00   3.11877251e-01  -9.57690895e-01   1.01610172e+00
    6.78630173e-01   4.68442708e-01]
 [  5.78230977e-01   7.44132757e-01   1.86559651e-02   8.49568725e-01
   -6.31953657e-01   4.03416842e-01  -1.47802007e+00  -4.23131958e-02
    7.54481554e-01   9.21546072e-02]
 [  3.15276355e-01  -2.12294042e-01  -3.73142987e-01   2.36710533e-01
   -2.68135548e-01   5.45560382e-02  -7.14921892e-01   1.11145639e+00
    4.52295631e-01   1.10724461e+00]
 [ -3.51667069e-02   1.04197018e-01   2.57229388e-01   9.00008440e-01
    3.81672204e-01  -4.63943154e-01  -2.46033955e+00   6.50907874e-01
   -6.34367466e-02  -4.67902064e-01]
 [  1.11284018e+00  -5.50436318e-01  -1.03285283e-01   2.13113666e-01
   -4.88104612e-01   1.48867357e+00  -8.38348389e-01   4.73426551e-01
    1.27992585e-01  -6.35489523e-01]
 [  6.99608445e-01  -1.30444920e+00  -2.40153998e-01  -2.97986686e-01
    3.01041782e-01  -9.93990228e-02  -8.46056521e-01  -1.15607113e-01
   -8.85458052e-01   2.73106039e-01]
 [  3.03949058e-01  -7.65223444e-01  -9.92809981e-02   8.58120561e-01
   -2.04122588e-01  -1.33782908e-01  -1.67219770e+00   5.84361494e-01
    6.73266292e-01   1.44678712e-01]
 [  1.47919321e+00  -9.10021245e-01   1.30310941e+00  -1.14758468e+00
    2.15997189e-01   2.19580078e+00  -1.90876710e+00   5.15089989e-01
    1.42867351e+00   2.13728808e-02]
 [  1.40349776e-01  -2.43101096e+00  -1.98008788e+00  -1.00655675e+00
   -8.46349418e-01   2.85735226e+00  -1.40708399e+00  -2.45490551e-01
    1.28756058e+00   3.68594304e-02]
 [ -2.22435451e+00  -6.44352257e-01  -5.58099270e-01  -1.68015972e-01
    1.41326356e+00   2.00730491e+00  -7.06319869e-01  -5.48872173e-01
    1.69999492e+00   1.21731982e-01]
 [ -8.35025370e-01  -4.63064201e-02  -1.45440131e-01  -2.54564220e-04
   -1.11562505e-01   1.34026706e+00  -4.98348832e-01  -4.42052959e-03
    1.07860076e+00  -4.06946279e-02]
 [ -3.11445538e-03  -2.10354198e-03  -4.08029146e-02   5.13005307e-06
   -1.81469470e-04  -6.28129616e-02  -1.08149434e-02  -5.31347105e-05
    1.02684855e-01  -3.36866663e-03]
 [  1.13763003e-19   2.18722254e-17  -2.25841938e-15   6.98795466e-11
   -1.06261894e-02  -7.79020593e-06   2.35240230e-20   3.35695744e-02
   -4.31129267e-14  -1.98775046e-02]
 [  9.96264138e-09  -2.99783345e-08  -2.99658552e-02  -1.79183424e-01
   -6.02562502e-02  -4.05689527e-04  -2.95394677e-14   4.91422176e-01
   -3.69477384e-02  -1.99875638e-01]
 [  1.19528763e-01  -2.84656972e-01  -2.84482062e-01   5.03797889e-01
    3.67049575e-01  -2.81417947e-02  -9.60582197e-02   5.15733719e-01
   -2.38935933e-01  -3.98268491e-01]
 [  2.77905881e-01  -4.02549841e-02   2.37614781e-01   9.22386467e-01
   -1.09421611e+00  -8.15715075e-01  -2.93988138e-01   1.51811969e+00
   -5.27508743e-02  -6.66103899e-01]
 [ -1.19169012e-01  -3.78289431e-01   2.17233151e-01   7.94527292e-01
   -1.23942161e+00  -1.26936805e+00   1.13284934e+00   1.43533933e+00
   -3.97366792e-01  -1.16073298e+00]
 [ -3.93076360e-01  -1.25926006e+00   1.79943311e+00   1.39792979e+00
    1.96720008e-03  -1.59794879e+00  -1.00807619e+00   2.68870622e-01
    1.23997375e-01   7.92112052e-01]
 [ -7.71252096e-01  -8.96659076e-01  -1.20779693e+00  -1.11658731e-03
    3.13475765e-02   5.76741770e-02  -3.65110368e-01   1.24861097e+00
    1.75071642e-01   7.71268487e-01]
 [ -5.24079740e-01   7.30640113e-01  -3.76890212e-01   4.74388674e-02
   -6.16454005e-01  -1.21009791e+00  -3.27346921e-01   2.14475051e-01
    3.01926613e-01   1.74911276e-01]
 [ -3.24943572e-01   2.23299358e-02   2.12374941e-01  -7.05585778e-02
    3.37031394e-01   7.96751499e-01  -8.80790949e-01   1.41744345e-01
    6.83785006e-02   5.40118575e-01]
 [ -1.82903498e-01  -1.42101574e+00  -9.01181400e-02   1.32593679e+00
   -1.98430791e-01  -6.90200746e-01  -3.26096104e-03   1.13968158e+00
    8.53823245e-01   4.42087688e-02]
 [  1.12054348e+00  -5.46707034e-01   3.72795314e-01  -8.86634588e-01
   -1.16107844e-01  -7.41905496e-02  -4.51214820e-01  -7.58707285e-01
    4.53733206e-01   4.20465022e-01]
 [ -6.53792799e-01  -5.37686706e-01  -2.51538664e-01  -9.50230122e-01
   -2.12965921e-01   6.59180462e-01  -3.04303020e-01   7.38706365e-02
   -7.43641376e-01   2.47193754e-01]
 [  1.69735074e-01   8.28930259e-01  -5.57431698e-01  -5.82776845e-01
    5.94076037e-01  -3.18647385e-01  -5.51748395e-01   1.51759160e+00
   -4.55944270e-01   2.80608743e-01]
 [  6.87219441e-01  -4.79326367e-01   7.03840628e-02   2.47349560e-01
    4.40443158e-01   6.36353135e-01  -1.47845316e+00   8.69289696e-01
    8.14080656e-01   7.37305760e-01]
 [  1.23205829e+00   2.30381802e-01   1.11334288e+00   5.04404068e-01
   -6.81926548e-01  -5.25052309e-01  -2.00336371e-02   6.92202032e-01
   -1.32033348e-01  -1.25829697e-01]
 [ -1.44264325e-01   1.44501615e+00   9.83592212e-01   1.53588438e+00
   -1.18685985e+00  -7.34831810e-01  -9.36634779e-01   1.62706327e+00
   -1.59812915e+00   8.05059314e-01]
 [  3.90659451e-01   1.78186502e-02   1.63656667e-01  -2.20440596e-01
   -5.96471317e-02  -1.08821011e+00  -8.65158916e-01   5.53221703e-01
   -2.76331335e-01  -1.16977701e-02]
 [  2.05728388e+00   3.72937232e-01   8.40298772e-01   7.74893224e-01
    8.00519884e-01   2.10446209e-01  -1.23918462e+00   1.38121641e+00
    1.28709644e-01   2.96664417e-01]
 [  4.98842776e-01   6.56610355e-02   1.04699779e+00   1.03692055e+00
    5.95411241e-01   3.93770933e-01  -1.17253077e+00   1.30598307e+00
    8.98922503e-01   3.58597696e-01]
 [  1.73754239e+00  -2.05746204e-01  -1.03021249e-01   2.44067982e-01
   -3.13769579e-01   7.37356365e-01  -4.93668646e-01   6.86175227e-01
    4.87264544e-01   6.69719577e-01]
 [  1.99011490e-01  -8.92889559e-01   6.45578504e-01   4.15080011e-01
    4.68284279e-01  -5.84143162e-01  -4.27330375e-01  -3.20141792e-01
    2.86595047e-01   1.34645551e-01]
 [ -9.25287247e-01  -1.02312303e+00  -1.07312167e+00   1.10707307e+00
   -9.64249074e-01   6.66565835e-01  -8.97932470e-01   3.18696409e-01
    9.38005686e-01  -1.23488486e-01]
 [ -1.28951168e+00  -5.33250928e-01   4.42660460e-03   9.63631809e-01
    1.67610034e-01   4.65670168e-01  -1.69383621e+00   1.68868050e-01
   -6.53223574e-01   9.24511477e-02]
 [  1.31195569e+00  -1.47866189e+00   5.32816947e-01  -9.78550851e-01
    7.12109029e-01   5.02854049e-01  -1.04012907e+00  -5.86636662e-02
    1.07607675e+00  -9.23473477e-01]
 [  1.49331653e+00  -1.02287161e+00  -1.64374268e+00  -1.84564912e+00
    3.30741316e-01   3.97562671e+00  -8.68615568e-01  -2.13942274e-01
    1.44102204e+00  -6.92457438e-01]
 [ -2.06468916e+00  -7.22013116e-01  -8.31127688e-02   7.97361806e-02
   -3.25986743e-01   3.04756474e+00  -1.54455590e+00   7.80199766e-01
    2.57423925e+00  -1.00141346e-01]
 [ -8.31308901e-01  -1.79558657e-02   2.09412083e-01  -9.13713127e-04
    1.59459531e-01   6.13565445e-01  -8.47321391e-01   3.46289486e-01
    9.49689984e-01  -8.55990797e-02]
 [  4.65884176e-09  -2.28261153e-04  -4.93373545e-06   6.06015590e-07
   -1.31676681e-02  -9.26606953e-02  -9.21820384e-03   7.21891463e-01
   -6.17982566e-01  -6.19012583e-03]
 [  7.50411531e-20  -1.55722541e-17   1.75456404e-14  -1.66262670e-10
   -1.41060892e-02  -3.37081474e-05   1.25977652e-20   3.70632857e-02
   -7.64501093e-13  -2.42513865e-02]
 [  1.43710565e-07  -4.06172830e-07  -2.61006244e-02  -2.37939894e-01
   -4.15496938e-02  -2.43554852e-04   9.64633973e-09   4.67742294e-01
   -1.42369717e-02  -1.90521091e-01]
 [  3.65457594e-01  -1.52383268e-01  -3.25441867e-01  -1.45765096e-01
    9.69892740e-03  -1.15616746e-01  -2.58121908e-01   1.29979050e+00
   -1.04703389e-01  -4.55615312e-01]
 [  1.48304859e-02  -2.85091966e-01   1.36246037e+00   1.42191875e+00
    2.97339782e-02  -1.13699543e+00  -3.31352115e-01   6.21103644e-01
   -5.73602676e-01  -2.40571424e-02]
 [ -6.09717429e-01  -7.83502698e-01  -7.92972147e-01   7.59998143e-01
   -4.79819089e-01   6.04790002e-02  -9.62222070e-02   1.18682027e+00
    1.26919532e+00  -7.55170524e-01]
 [  4.54074264e-01  -1.59275925e+00   1.32883692e+00  -4.74433511e-01
   -1.12764299e+00   3.94974351e-01  -9.25797284e-01   3.59160304e-02
   -3.41734469e-01   5.03437482e-02]
 [ -7.65405521e-02  -1.79779136e+00   2.00916195e+00   4.05015826e-01
   -8.43248665e-01  -4.61679488e-01  -8.54255497e-01  -1.29514173e-01
    4.15218383e-01  -1.23644933e-01]
 [  1.41414478e-01  -4.70731676e-01   2.56575793e-01   1.16062224e+00
    1.47598833e-01   1.98766005e+00   2.44460538e-01   1.10810053e+00
    6.04442000e-01  -1.47229061e-01]
 [  1.10723451e-01   5.50421298e-01   4.05666858e-01  -4.04284522e-02
    3.89470831e-02   9.51447070e-01  -2.47790530e-01   4.20974910e-01
    9.38255310e-01   9.17466462e-01]
 [  1.03119862e+00  -4.55831617e-01   7.00359559e-03  -1.24432397e+00
    8.25299025e-01   1.28939319e+00  -9.94202673e-01   1.15129864e+00
   -1.34927586e-01   8.74552906e-01]
 [ -8.88748348e-01  -4.16760594e-01   5.85190594e-01  -7.05044389e-01
   -1.27463967e-01   3.23989913e-02   3.48601043e-02   5.61504304e-01
    4.37631696e-01   3.08134466e-01]
 [ -1.24248257e-02   5.27549386e-01  -4.28471804e-01  -6.51919723e-01
   -8.20611954e-01   1.18426120e+00  -1.21777141e+00  -8.20500493e-01
    1.12061059e+00   2.39463359e-01]
 [  3.78035866e-02  -5.46452165e-01   1.41874707e+00  -6.76146209e-01
   -4.15860951e-01   8.40748906e-01   5.97124211e-02  -1.73350260e-01
    8.01215112e-01  -2.73687690e-01]
 [  7.25767493e-01   2.07338929e+00  -3.75662684e-01   5.27171552e-01
   -2.70925939e-01   8.94406378e-01  -1.13778472e+00   7.19157755e-01
    5.83402038e-01  -4.57654372e-02]
 [ -7.21130550e-01   5.90021253e-01  -3.37412618e-02  -1.78490981e-01
   -1.50028837e+00  -5.18893786e-02  -7.31817305e-01   1.28362060e+00
    9.36034620e-02   9.49891150e-01]
 [ -1.07900858e+00   8.12950611e-01  -7.53433049e-01   1.02188241e+00
   -1.70028567e-01  -3.97624642e-01  -2.08929181e+00   7.45783925e-01
   -6.97515726e-01  -5.47276139e-01]
 [  3.94138455e-01   1.00874126e+00   6.35519505e-01  -1.25526562e-01
   -2.42528722e-01  -4.69201088e-01  -1.55651379e+00   1.53852642e+00
   -3.20432991e-01   7.17884719e-01]
 [  1.23750877e+00  -1.24253772e-01   5.18132150e-01   9.35230494e-01
    1.18680619e-01   2.33368650e-02  -5.08695006e-01   1.16408861e+00
   -5.38957477e-01   2.20194012e-01]
 [  9.05228078e-01   5.17962515e-01   3.62470239e-01   4.72671658e-01
    1.49920702e-01  -7.81624913e-01  -8.59710455e-01   9.07024741e-01
    2.59883225e-01   5.74329078e-01]
 [  2.35514104e-01  -1.31077325e+00  -4.35264856e-01  -5.50018363e-02
    1.61482167e+00  -1.04828501e+00  -7.74259210e-01   9.91704464e-01
    5.29272854e-01   3.54424924e-01]
 [  3.56703252e-02  -1.20812905e+00  -1.29105914e+00   2.70584464e-01
   -1.97828352e+00  -7.66663134e-01  -1.42952192e+00   9.83519971e-01
   -3.51853788e-01  -1.27769530e-01]
 [  1.56944662e-01   6.70724586e-02   6.25693262e-01  -6.53240323e-01
    9.51522887e-01   3.70866223e-03  -1.02919853e+00   1.01965941e-01
    1.33475780e-01  -1.16868746e+00]
 [  1.01697361e+00  -7.87958860e-01  -9.23093855e-01   7.77631640e-01
   -6.56881869e-01   8.87889937e-02  -4.26325917e-01   1.56704617e+00
    1.03281903e+00   2.72998095e-01]
 [  9.58600342e-01  -6.85033143e-01  -2.90835738e-01   5.13222933e-01
   -1.47907889e+00   1.19061530e+00   2.53461272e-01  -8.45097899e-01
    2.92773694e-01  -2.69692332e-01]
 [  8.38193893e-01  -1.34673691e+00  -2.07899022e+00  -1.48947132e+00
   -1.23375726e+00   4.71412468e+00   2.21962743e-02   5.01365811e-02
    7.38783777e-02  -6.45155430e-01]
 [ -1.12977028e+00  -2.64505476e-01  -4.74160761e-01   3.34810555e-01
   -5.33281922e-01   3.66248155e+00  -1.43645954e+00   6.84829533e-01
   -4.75032208e-03   6.90395236e-01]
 [ -6.76275611e-01  -5.37585951e-02   4.10752237e-01  -6.28179929e-04
   -3.78777534e-01   1.18002546e+00  -7.99172819e-01   2.18063071e-01
    7.74566948e-01  -1.42732799e-01]
 [  1.59451030e-08   9.29526798e-03  -3.21331470e-07   4.67467398e-09
    4.27608666e-06  -6.75554499e-02  -9.40878317e-02   1.97128251e-01
   -8.79619922e-03  -2.21463088e-02]
 [ -1.04723885e-20   1.12765728e-18  -2.25050638e-11  -5.29101781e-05
   -1.48924087e-07  -4.27387477e-08  -3.34010725e-21   1.38079561e-03
   -2.22436766e-18  -3.08324707e-06]
 [  1.01726845e-01  -2.63250718e-06  -2.56724413e-02  -1.29676700e-01
   -1.39437214e-01  -5.29264919e-02  -7.59732472e-08   4.96033579e-01
   -2.65705567e-02  -2.32911751e-01]
 [  1.43716802e-10   9.26210079e-03  -1.16520897e-01  -2.06031844e-01
   -4.35132533e-01  -1.23343877e-01  -3.11138791e-07   2.39971447e+00
   -5.31000718e-02  -1.31787086e+00]
 [ -3.92589793e-02  -1.99511737e-01   2.07906440e-01   2.02866554e+00
    5.23346484e-01  -1.95047462e+00  -2.57358253e-01   5.57938576e-01
    2.84837872e-01  -4.77772355e-01]
 [ -2.14854145e+00  -4.07517225e-01   1.98451821e-02   1.19542384e+00
   -1.10858560e+00   2.18372673e-01   3.98508012e-01   3.66474599e-01
   -2.11907566e-01   3.05262566e-01]
 [ -6.77385151e-01  -5.11436105e-01   6.35816008e-02  -8.19098413e-01
    4.19098288e-01  -2.45060384e-01   1.41679430e-02   1.51812568e-01
    9.55882549e-01  -3.49088669e-01]
 [  2.68647254e-01  -1.81280220e+00   6.12522781e-01  -1.16016769e+00
    8.32453549e-01   3.24216127e-01  -4.96092439e-01   2.05430686e-01
   -3.63638937e-01   1.54134274e+00]
 [  7.36118376e-01  -1.40812409e+00  -4.91587073e-02  -1.35859954e+00
    7.86914051e-01   5.80304146e-01   2.20998049e+00   8.54733661e-02
    1.44862378e+00   7.20517039e-01]
 [ -3.95733029e-01  -7.21812606e-01  -9.10982668e-01  -3.14007878e-01
    1.87072933e-01   1.43322185e-01   5.83044052e-01  -1.44532394e+00
    1.37548363e+00   9.71764803e-01]
 [ -7.72414684e-01  -3.01289827e-01  -7.97293484e-01  -9.90861416e-01
    6.83965325e-01   1.11767304e+00   1.20400274e+00   4.67364013e-01
    1.07853937e+00   7.22202957e-02]
 [ -2.76277602e-01  -2.50635356e-01  -2.42844892e+00  -3.29082757e-01
    6.57311201e-01   2.37421747e-02  -9.32845592e-01  -1.30425185e-01
    4.35680151e-01  -2.38027610e-02]
 [  1.08438551e-01   1.04225481e+00  -8.92346740e-01  -3.27588469e-01
    1.97858548e+00  -2.53426224e-01   1.87203467e-01   1.94702160e+00
    4.63978350e-01   1.87665927e+00]
 [ -6.38524830e-01  -7.45552599e-01  -1.94933856e+00  -3.88898134e-01
    1.46146977e+00   8.64135325e-01   1.96626514e-01  -1.44815296e-01
   -1.99021190e-01   1.11769664e+00]
 [  6.21756196e-01   1.56089711e+00  -8.08925152e-01   2.30095601e+00
   -2.12696934e+00   1.23029411e+00   2.41027212e+00   5.63988984e-01
    1.36451125e+00   3.06867361e-01]
 [ -5.09832740e-01   2.06884599e+00  -1.06405365e+00  -1.00366127e+00
   -1.08798444e+00   5.83518028e-01   1.05715096e+00   1.82596648e+00
    9.40945685e-01   2.80326288e-02]
 [ -1.16548455e+00   2.31581736e+00  -1.75211275e+00   9.56354201e-01
    8.33492279e-02  -4.25012529e-01  -2.16374183e+00   2.61682898e-01
    6.73679829e-01   1.85545415e-01]
 [ -1.61777794e+00   7.66258657e-01  -4.37318087e-01  -2.04639390e-01
    1.26337731e+00  -4.97129709e-01   1.27929002e-01   9.31682885e-01
   -8.62871110e-01   7.02497721e-01]
 [  4.38278735e-01  -2.21227959e-01  -8.88213754e-01   4.46896553e-01
   -1.11485817e-01  -5.73576450e-01  -5.77252030e-01   4.75324124e-01
    6.25009120e-01   8.36014509e-01]
 [ -8.50314200e-01  -1.09436762e+00   1.59403399e-01   6.50428832e-01
    7.99728483e-02   3.58645856e-01  -9.68226910e-01   7.93918729e-01
   -9.30405781e-02   5.27204692e-01]
 [  9.33975577e-01   1.88190073e-01   1.06667829e+00   7.88503349e-01
   -6.60921514e-01  -9.73116517e-01  -1.12678778e+00   3.91635656e-01
   -4.82857466e-01   1.24522403e-01]
 [ -5.04163146e-01  -3.01629931e-01   4.00611937e-01   3.00176889e-01
   -2.43108302e-01  -9.72280025e-01   2.05799311e-01   1.04523826e+00
   -5.46711087e-01   6.54565394e-01]
 [  8.82419407e-01  -6.44814670e-01  -8.05250227e-01   3.16923484e-02
   -4.64453131e-01  -2.25996256e+00   3.12716216e-01   8.30326915e-01
    8.58083460e-03   1.21629238e+00]
 [  2.83797532e-01  -8.62269163e-01  -3.23089987e-01   3.89857739e-01
   -1.12130630e+00  -8.05609822e-01  -1.70249808e+00   7.93382704e-01
   -3.59327458e-02   2.60788873e-02]
 [  1.13151360e+00  -3.66673857e-01  -4.03409749e-01  -5.45102000e-01
   -1.45753992e+00   3.86983782e-01   1.93475258e+00  -1.14017487e+00
    5.10668755e-01  -1.98999658e-01]
 [  7.84871504e-02  -9.83849943e-01  -1.30155876e-01  -1.44230998e+00
   -1.88156652e+00   3.61845088e+00  -8.43832254e-01  -3.49588752e-01
    1.53996253e+00  -5.27884901e-01]
 [ -1.42311180e+00  -3.66493911e-01   2.33783409e-01   5.08758247e-01
   -1.27386999e+00   4.70364523e+00  -1.79791653e+00  -4.38578099e-01
   -1.04618244e-01   1.67277623e-02]
 [ -9.19224560e-01  -1.94750935e-01   2.31016874e-01  -7.89935002e-05
   -3.47684920e-01   1.38023674e+00  -1.76201034e+00  -8.97559077e-02
    1.98422992e+00  -1.30168244e-01]
 [ -1.02247941e-05  -1.08230580e-02  -2.73817539e-01   1.05253255e-08
   -6.79963548e-03  -1.06236112e-04   1.65416464e-01   5.46476021e-02
    1.92520916e-02  -7.13748275e-04]
 [ -4.11915266e-19  -2.15050962e-17  -2.38145476e-11  -1.80800616e-05
    1.67055097e-17  -3.79936751e-07  -2.72895487e-22   5.45962139e-05
    7.22576665e-10  -2.15507636e-04]
 [  1.07688969e-08  -3.55598531e-05  -1.93427075e-02  -1.86835900e-02
   -1.55034870e-01  -1.06739156e-01  -1.26779150e-06   4.44967359e-01
   -2.05623899e-02  -7.76138008e-02]
 [ -2.30162731e-13  -9.00130868e-02  -1.23117832e-04  -2.14013979e-01
   -6.27873719e-01  -1.27301544e-01   8.22498464e-07   2.10381889e+00
   -5.65402806e-02  -9.14091587e-01]
 [ -4.70972024e-02   1.37202954e-02  -8.19256842e-01   2.95790583e-01
   -5.09723604e-01  -6.66471004e-01  -2.28148803e-01   2.10748315e+00
    1.33044434e+00  -6.91688955e-01]
 [ -1.04950130e+00   1.84716389e-01  -4.96442735e-01   4.04420681e-02
   -1.39763451e+00   2.26074323e-01   4.85256642e-01   1.21252763e+00
   -6.13100052e-01   1.64036512e+00]
 [ -1.73634142e-01  -2.60803968e-01  -6.38939202e-01   7.07751662e-02
   -2.70774513e-01  -3.48645449e-01  -3.86193633e-01   2.64848143e-01
    3.89284939e-01   3.72357011e-01]
 [  5.91924548e-01  -7.47526586e-01  -2.52394414e+00  -4.34649497e-01
    5.68341136e-01   3.80308539e-01   7.78027117e-01   2.80422777e-01
    4.13017303e-01   4.95035887e-01]
 [ -2.34153137e-01  -7.29313910e-01  -2.77118683e+00  -2.93243885e-01
    7.06406891e-01   3.00686676e-02  -4.96497452e-01   2.38415313e+00
    5.87638080e-01   8.84801090e-01]
 [  2.36218557e-01  -5.81334472e-01  -1.47040343e+00  -8.88186395e-01
    1.10911739e+00   8.63470212e-02  -2.78726816e-01   1.85753441e+00
   -1.30248260e+00   7.92299807e-01]
 [ -3.14355493e-01  -6.27174437e-01  -6.33095920e-01  -1.15523207e+00
    7.34862566e-01  -1.65494049e+00  -5.00973642e-01   2.29668483e-01
    6.31572753e-02   8.59992504e-01]
 [  4.59472805e-01  -1.56048989e+00  -1.69018173e+00   2.01318070e-01
   -1.62080601e-01   5.46587110e-01   3.84995520e-01  -8.03134501e-01
   -9.36261296e-01  -4.16119248e-02]
 [ -1.78188980e-01  -2.12782621e+00  -9.58305836e-01  -2.45478883e-01
    1.34565973e+00  -2.65748203e-01   1.08229685e+00   3.46400619e-01
   -3.31915557e-01   6.61096215e-01]
 [ -1.63681373e-01   2.47324124e-01  -1.43977141e+00  -5.30440032e-01
    1.46351922e+00   1.54096231e-01  -5.96647620e-01  -1.98463583e+00
    5.65697312e-01  -1.63505042e+00]
 [ -1.46960139e-01   3.07792962e-01  -8.13696682e-01   2.90350709e-02
    1.73434421e-01   7.08097279e-01  -2.69909780e-02  -2.80584741e+00
    2.63282150e-01   2.28034422e-01]
 [ -1.34296143e+00   1.05970180e+00  -1.31374216e+00   1.08517921e+00
   -6.23176992e-01  -8.45294297e-01  -1.32316792e+00   8.05743635e-01
    1.11191487e+00   1.00990510e+00]
 [ -2.39655137e+00   1.41174781e+00  -4.81279999e-01  -2.21772343e-01
    5.82239270e-01   3.78378093e-01  -5.93730032e-01   1.31097412e+00
   -6.16269588e-01   9.34468985e-01]
 [ -1.32762790e+00  -2.98137605e-01  -6.72787786e-01   1.27515972e+00
    7.35066652e-01  -4.23194289e-01  -1.11645103e-01   6.83285594e-01
    7.09170580e-01   1.16761811e-01]
 [ -1.40882526e-02   4.59356248e-01  -7.17392147e-01   6.08364008e-02
    7.27028549e-01  -1.82481065e-01  -4.19381186e-02   2.35461020e+00
   -3.89703631e-01   1.61412573e+00]
 [ -1.90603822e-01   8.03772748e-01   9.14928243e-02   5.56408882e-01
   -7.86921978e-02  -5.15847147e-01   1.93251967e-01   1.16023052e+00
    3.06135356e-01   3.83435577e-01]
 [  3.59994680e-01  -5.01247525e-01   4.10233904e-03  -5.12363017e-01
    1.13228524e+00  -1.42616749e-01   1.80268109e-01   8.13824218e-03
    1.14924026e+00   1.26836455e+00]
 [  4.68419850e-01  -7.49867141e-01   2.07784206e-01   6.92110896e-01
    1.25094220e-01  -7.86572993e-01  -7.34225988e-01  -6.99403211e-02
    8.74013364e-01   6.07176840e-01]
 [  3.37584764e-01   4.19320941e-01  -7.96861388e-03  -1.18015230e+00
    4.61027741e-01  -1.99402571e+00   3.58280190e-03   2.23937109e-01
    4.00931776e-01   7.54877150e-01]
 [  3.37907106e-01  -2.49431387e-01   3.36264640e-01  -3.49742889e+00
    6.31534636e-01  -4.45188713e+00   7.14580953e-01   3.37818325e-01
   -1.13865629e-01   1.15702558e+00]
 [  7.69502044e-01   2.40296032e-02  -8.33967447e-01  -1.13443983e+00
   -3.81016344e-01  -3.36558700e+00   2.74363923e+00  -6.13872349e-01
    2.18510556e+00   1.13935745e+00]
 [  3.01888156e+00  -2.97010660e-01   4.43681747e-01  -9.42910314e-01
   -3.23066354e-01  -4.73207426e+00   1.25863445e+00  -4.85418320e-01
    3.05428720e+00  -1.57509863e+00]
 [ -7.05532134e-01  -4.28086296e-02   1.64735520e+00   2.97336787e-01
   -4.21987474e-01   1.20334752e-01  -5.33206463e-01   5.18592186e-02
    7.52375424e-02  -6.88129544e-01]
 [ -1.11363041e+00  -2.38243997e-01   1.16822600e+00  -8.58600106e-05
   -2.08293006e-01   2.03229284e+00  -1.71556032e+00   5.16657948e-01
   -2.48159334e-01  -1.08042806e-01]
 [ -8.84552079e-04  -3.20410617e-02  -8.78372714e-02  -1.04220952e-08
   -2.30014682e-01  -1.00831990e-03   2.44938448e-01   2.00059131e-01
   -5.15424721e-02  -2.56576063e-03]
 [ -9.02666724e-20   1.32581554e-04   6.54543555e-07   1.73440676e-05
   -1.42570733e-09   7.89747432e-08   4.43742598e-10   1.65474339e-04
    1.01316164e-05   4.94855612e-06]
 [  1.43330719e-03   5.77524634e-06   8.07680881e-14  -3.62735689e-02
   -1.86210141e-01  -6.72632887e-04  -5.60545068e-08   3.44208270e-01
   -1.39265079e-02  -5.01799211e-02]
 [  9.11058880e-13  -2.32311152e-02   1.50768713e-08  -4.98377755e-02
   -3.41006041e-01  -8.75090528e-03  -1.52362659e-07   1.13942599e+00
   -3.48428525e-02  -5.00506878e-01]
 [  9.34099555e-02   1.87646076e-01  -1.15790296e+00   1.86942637e-01
   -5.85891664e-01   4.72083203e-02  -2.02890202e-01   1.18992364e+00
    5.37416101e-01  -7.14611351e-01]
 [  2.65249342e-01   6.59321368e-01  -2.92866039e+00  -1.29062259e+00
   -5.40576637e-01   8.87605071e-01  -4.88712154e-02   1.42287779e+00
   -5.40453196e-01   1.69098854e+00]
 [  7.22675547e-02  -7.59172067e-02  -2.62621975e+00  -5.86297333e-01
    9.32073593e-01   9.88586307e-01  -7.82270133e-01   1.47327989e-01
    1.35746554e-01   5.82890332e-01]
 [  7.81502068e-01  -2.54270226e-01  -2.74226236e+00  -5.50511420e-01
    2.09249094e-01  -4.62355465e-01   1.16097820e+00   4.05537754e-01
   -5.03875375e-01   8.80967855e-01]
 [  9.72485363e-01  -4.70544934e-01  -1.94147027e+00  -5.13157964e-01
    1.42957509e+00   9.78719473e-01  -3.03796530e-01   2.56627858e-01
    5.67215025e-01   3.26688290e-01]
 [  2.06244737e-01   6.97146118e-01  -6.74876347e-02   5.50843716e-01
    1.72528848e-01   4.84312207e-01   1.62719297e+00  -3.53360564e-01
    5.26160300e-01   4.22462791e-01]
 [ -2.73001760e-01   1.83175281e-01  -1.05368458e-01   3.91800590e-02
    7.25753248e-01   3.56628597e-01   6.70698404e-01  -9.36788261e-01
    4.13060039e-01  -4.57050055e-01]
 [ -2.22791716e-01  -2.88197637e-01  -1.35622501e-01  -2.64353435e-02
    1.93105662e+00   6.15402162e-01   2.13058978e-01   6.92376435e-01
    2.89585769e-01   7.00535357e-01]
 [  8.30146551e-01  -7.86573529e-01  -3.48445237e-01  -2.39285856e-01
    9.96634245e-01   6.82854235e-01   6.21946692e-01   6.60446286e-02
   -4.12589937e-01  -3.04088265e-01]
 [  2.11294577e-01   7.19233394e-01  -2.34772470e-02   1.85060441e-01
    1.39954972e+00   8.91411126e-01   4.00007576e-01  -2.45755029e+00
    7.28267908e-01  -4.39306825e-01]
 [ -1.16678405e+00   9.27792311e-01   8.45562398e-01   1.07124841e+00
   -8.74825001e-01   8.75600398e-01   5.05492210e-01  -2.06916356e+00
    9.77847040e-01   5.89473426e-01]
 [ -1.83271682e+00   9.62176502e-01   3.44031513e-01   1.00378835e+00
   -2.16629654e-01  -3.97665277e-02   1.93283543e-01  -1.41880825e-01
    7.49745592e-02  -5.22513092e-02]
 [ -1.39073479e+00   2.27009639e-01  -1.29199743e-01  -8.65392387e-02
    9.67340410e-01  -1.80959672e-01   5.81776619e-01   1.09691226e+00
    1.27782631e+00   1.20163763e+00]
 [ -2.35406280e+00   2.14700341e+00  -6.79007545e-02  -3.19784939e-01
    1.07207417e+00  -7.46510029e-01   3.12886029e-01   2.19279692e-01
    5.01933575e-01   1.06806374e+00]
 [  3.60638678e-01   1.35217655e+00  -3.22855311e-03   3.69748741e-01
    4.03497607e-01  -9.63898897e-01  -3.41624588e-01   2.15115756e-01
    9.31945816e-02   1.15294349e+00]
 [  7.89550066e-01  -8.16294014e-01  -7.01210141e-01   6.16750121e-01
    1.01672077e+00   6.21078908e-01  -1.74152541e+00   4.19582725e-01
    3.23949873e-01   1.03372610e+00]
 [ -9.49691951e-01  -4.33881104e-01  -8.12849641e-01  -1.81956410e-01
    7.64304549e-02  -7.14050949e-01   2.57306229e-02  -6.06955945e-01
   -3.86504322e-01   1.10876870e+00]
 [ -1.13272107e+00  -8.51496577e-01  -6.37336314e-01  -8.22933555e-01
    8.69564354e-01   2.46211529e-01  -8.09049249e-01   9.79044810e-02
    4.39446509e-01   9.99870300e-01]
 [  1.40261269e+00  -2.82016069e-01   2.72623003e-01  -9.48212922e-01
    1.11130834e+00   1.44170851e-01   7.03517437e-01   4.52607989e-01
   -2.60227531e-01   5.85451543e-01]
 [ -2.74729788e-01  -4.37269360e-01  -4.25119191e-01  -2.04407191e+00
    1.02033508e+00  -2.32502252e-01   1.45602393e+00  -2.31948286e-01
    6.67298019e-01   5.92688680e-01]
 [  1.75682759e+00  -4.26006138e-01  -7.30255246e-01  -8.58454347e-01
    1.51517734e-01  -1.42088592e+00   1.89136839e+00  -2.75406182e-01
    1.01377845e+00  -1.08338392e+00]
 [  9.37617242e-01  -5.11940777e-01   3.03153610e+00  -2.88600679e-02
   -1.49768341e+00  -3.69343901e+00   1.15620661e+00  -1.16743863e-01
    1.44450092e+00  -1.83762598e+00]
 [  7.32373297e-01  -2.70040810e-01   2.90404963e+00   2.32122347e-01
    1.45675093e-01  -1.76228750e+00  -1.17355180e+00   4.60856795e-01
   -5.36070280e-02  -9.25405562e-01]
 [ -2.21220210e-01  -3.56458932e-01   3.55017161e+00  -1.66299171e-04
   -1.92530945e-01   2.71574199e-01  -1.69425511e+00  -2.51965761e-01
   -4.99106824e-01  -3.00061971e-01]
 [ -1.84927285e-02  -3.44570913e-06   1.26139498e+00  -2.46328309e-05
   -7.76650131e-01  -3.08981929e-02   1.49464253e-02  -2.54623383e-01
    2.62763293e-04   1.29552336e-09]
 [ -1.06275396e-11  -6.88092117e-09  -7.21564038e-06  -2.08403682e-03
   -2.54298939e-05   1.71252102e-01  -6.25338453e-06   1.11700381e-07
   -3.27193848e-04  -1.67694777e-01]
 [  8.56399734e-20   3.69141289e-22  -8.90157297e-02   5.55367842e-02
   -1.33696198e-01  -1.79044468e-06   3.32525496e-22   2.43379012e-01
   -4.40640965e-17  -4.68308143e-02]
 [ -1.03656144e-15   3.14260237e-02  -6.58452734e-02   1.69134662e-02
   -2.54347503e-01  -3.42488172e-04  -1.75125933e-07   8.00392032e-01
   -6.79502217e-03  -4.13072467e-01]
 [ -9.93956625e-01   3.11524332e-01  -9.72847342e-01   4.49960321e-01
   -9.38398577e-03   2.04885378e-02  -4.42875437e-02   1.25009668e+00
   -2.50695705e-01  -1.97710246e-01]
 [  2.94239563e-03   5.19515157e-01  -2.04886079e+00  -1.11207902e+00
    1.67172527e+00   4.25927311e-01  -1.59197617e+00   4.76986647e-01
   -1.31242454e+00   1.08805370e+00]
 [  8.02118704e-02  -2.71382302e-01  -2.32072926e+00  -1.92094707e+00
    2.27291942e-01  -8.88921201e-01   1.89492628e-01   3.50590259e-01
    1.01670110e+00   4.39001888e-01]
 [  5.32739043e-01  -4.76817310e-01  -6.77854359e-01  -1.25074959e+00
    5.88466823e-01  -1.51453212e-01   1.50173116e+00  -5.36042809e-01
   -3.92915428e-01  -2.99341738e-01]
 [  2.34521127e+00  -8.07443321e-01  -3.79737705e-01  -1.04465890e+00
    9.37711716e-01   5.64156294e-01   2.78185606e-01   3.99648279e-01
   -1.13025582e+00   1.26883686e+00]
 [  1.55775571e+00   2.32651949e-01   1.14034784e+00  -2.84311891e-01
    1.74486065e+00  -8.79415274e-02   6.96859956e-01  -1.09351575e-01
   -1.45025238e-01  -1.39437914e-01]
 [  3.35584581e-01  -2.53534704e-01  -1.94027734e+00  -1.20876774e-01
    7.99231887e-01   5.27218997e-01   1.88987896e-01   7.55134046e-01
   -5.63248158e-01   1.35879540e+00]
 [  1.02712834e+00  -1.06078529e+00   1.31870401e+00   4.02170606e-02
    2.67412931e-01   6.55900300e-01   1.72865796e+00   2.25045338e-01
    2.24817529e-01   9.14247036e-02]
 [ -9.87029195e-01  -2.76123691e+00  -9.47701484e-02  -1.53559446e+00
   -1.68558583e-01  -1.20921418e-01   1.51013479e-01  -2.06523466e+00
    5.98849952e-01  -8.33810985e-01]
 [  1.83066475e+00   7.69232154e-01   5.76668322e-01   5.18612266e-01
    9.61888075e-01  -6.16817057e-01   2.32370317e-01  -2.03169465e+00
   -2.89707214e-01  -5.75986624e-01]
 [ -1.34160817e+00   5.55165470e-01   1.04781836e-01   5.87527394e-01
   -7.57919699e-02  -9.50104520e-02  -3.09741497e-01   2.68911626e-02
    1.58361757e+00   7.40828991e-01]
 [ -2.03114462e+00   1.72124827e+00   7.35802948e-01  -3.70049506e-01
    2.36805469e-01   8.36605310e-01  -3.73117179e-01  -9.53441918e-01
    4.61810738e-01   3.71082693e-01]
 [ -1.25660372e+00   6.79163039e-01  -9.54350531e-01   1.10638237e+00
    3.62533987e-01  -3.45608562e-01   4.19123501e-01   3.15036029e-01
    3.86787981e-01   6.54289722e-01]
 [ -1.48958099e+00   5.43166101e-02  -1.53833106e-01  -3.06650978e-02
    1.03966403e+00  -2.58367985e-01   1.41889870e-01   3.93948704e-02
   -3.27421218e-01   5.58593631e-01]
 [ -1.21713352e+00  -6.69380665e-01  -7.83886492e-01   2.92472374e-02
    3.41470927e-01  -5.37640333e-01  -1.02570105e+00   1.14242598e-01
    3.61047760e-02  -6.21940136e-01]
 [  8.39963078e-01  -1.70136213e+00   4.13341880e-01   3.52401972e-01
    1.04902804e+00  -6.50784194e-01   9.85541224e-01   9.89977360e-01
   -6.86916113e-01   4.00827646e-01]
 [ -2.03250811e-01  -1.13737285e+00   3.67459238e-01  -1.43468082e-01
    4.57859844e-01   1.56621635e-01   4.50475693e-01   1.77882075e+00
    1.17629898e+00   1.00531086e-01]
 [ -8.16035330e-01  -5.81267215e-02   2.18711317e-01  -7.31921256e-01
    9.69961941e-01  -3.05622071e-02   1.75337747e-01   9.39014316e-01
   -1.00853324e+00   1.86444283e-01]
 [ -1.01660930e-01  -7.79048622e-01  -4.37941849e-01   1.50240481e-01
   -3.28118920e-01  -3.58176231e-01  -1.98558584e-01  -3.63937616e-01
   -5.66009842e-02   5.03801107e-01]
 [  6.10431015e-01  -1.79501191e-01   1.74626354e-02  -5.49533367e-01
    1.80459872e-01   4.22141314e-01   7.50049412e-01   1.34186065e+00
   -1.44635212e+00  -1.56234592e-01]
 [ -1.90385252e-01  -2.49293923e-01  -3.88656110e-01  -5.82418621e-01
   -8.31908211e-02   6.09475970e-01   3.71952951e-01  -6.04646951e-02
   -2.25460720e+00  -1.29633284e+00]
 [  1.31515682e+00   4.18988988e-03   4.89195704e-01   2.50638038e-01
   -5.69688141e-01  -4.76634413e-01   1.46760726e+00  -5.99292889e-02
   -1.31851602e+00  -2.04385042e+00]
 [  1.08197320e+00  -1.35312930e-01   2.72226071e+00  -1.21967429e-02
    3.92984562e-02  -1.80259585e+00  -3.14307362e-01  -9.36042666e-01
    1.11132431e+00  -3.37303668e-01]
 [ -2.50432082e-02  -4.07546125e-02   2.40165472e+00  -2.19795154e-03
   -6.63923383e-01  -3.81085947e-02  -1.36208248e+00  -7.54539445e-02
    2.79872328e-01  -2.95267422e-02]
 [  4.72694452e-08   1.64421343e-09   9.86373648e-02  -1.09853045e-05
   -8.34710300e-02  -2.53844323e-08  -4.16976959e-03  -2.23661409e-04
    6.56951327e-10  -1.16948354e-10]
 [  2.74491332e-11   3.67624353e-09  -4.81935513e-06  -1.45842403e-03
   -4.25146254e-06   5.70365898e-02  -1.41619762e-06  -8.43155767e-09
   -4.73354994e-05  -5.57020977e-02]
 [ -1.89002854e-21  -7.28818884e-27  -2.00752825e-01   2.00799063e-01
    7.57439187e-23  -3.63112894e-14   7.89917663e-24   2.57884620e-25
    5.07558520e-17  -4.76669048e-21]
 [ -1.24750459e-05   1.23745553e-01  -1.88505128e-01   2.35656410e-01
    1.26059681e-01  -1.14855701e-02  -4.43560509e-07   5.55894077e-02
   -6.42315354e-05  -3.74805033e-01]
 [ -1.30396903e+00   9.13846120e-03   4.89957482e-01  -1.48720339e-01
    4.39184427e-01  -6.62492871e-01  -1.27824262e-01   5.41596830e-01
    1.75979719e-01  -4.57137264e-02]
 [  1.14230049e+00   3.23076919e-02   1.82821304e-01   3.92219543e-01
    1.85086393e+00  -3.65055382e-01  -2.51366329e+00   2.27587000e-01
   -8.59838307e-01   5.41106462e-01]
 [  5.05521357e-01  -5.32912672e-01   2.02398276e+00   1.03871569e-01
   -2.65973955e-01  -7.33016372e-01  -2.16944486e-01  -1.06455326e+00
   -1.34885466e+00  -1.26605141e+00]
 [ -6.99303448e-01  -1.22003877e+00   1.20292163e+00   6.28275514e-01
    1.42668402e+00  -1.16293657e+00  -2.44415049e-02  -2.95729667e-01
   -1.35200298e+00   6.37342036e-01]
 [  8.84668589e-01   4.30300385e-01   5.33725679e-01  -1.69244096e-01
    6.01639748e-01  -7.09758520e-01  -1.33258864e-01  -2.56749660e-01
   -2.46468261e-01  -1.68994680e-01]
 [ -2.03034073e-01   2.21451372e-01  -1.15983343e+00  -1.25925982e+00
   -4.98606339e-02  -7.53143057e-02   1.00931692e+00  -1.89423203e+00
   -8.77260149e-01  -4.19911653e-01]
 [  2.14604878e+00   1.04238495e-01   1.03089619e+00  -3.25668268e-02
    2.29808792e-01   5.53124249e-01  -1.96341023e-01  -5.53158820e-01
    4.02906537e-01  -9.19939041e-01]
 [  1.03487682e+00  -1.83902133e+00  -1.93426094e-03  -7.93646336e-01
    1.61505270e+00  -2.73066521e-01   7.09197223e-01  -1.26141620e+00
   -8.52530539e-01  -2.78291970e-01]
 [ -3.11155915e-01   8.96838546e-01  -8.85679841e-01   6.59018159e-01
    5.94960928e-01  -2.89096624e-01  -1.91291887e-02  -3.46726209e-01
   -6.03087060e-02   7.80622184e-01]
 [ -1.60057887e-01   9.57186759e-01  -2.74948716e-01  -9.16694552e-02
    5.65845191e-01   1.16874945e+00   1.87618053e+00  -1.08554220e+00
    8.65784705e-01   2.65459388e-01]
 [ -8.59379530e-01   4.90949124e-01   8.80640805e-01  -9.96559635e-02
   -2.84256101e-01   1.87652752e-01  -2.56190389e-01  -5.20097204e-02
    5.00667393e-01  -4.40096945e-01]
 [ -2.86749363e+00   1.28079462e+00   2.65914723e-02   7.80587196e-01
    2.43610770e-01  -1.46884775e+00   5.19642651e-01  -4.82987344e-01
    3.70920718e-01  -4.95444059e-01]
 [ -1.62502539e+00   5.09973049e-01   8.88404429e-01   6.86237141e-02
    1.14762080e+00  -1.21223070e-01  -8.09543207e-02   4.03287590e-01
    5.56702495e-01   6.58795893e-01]
 [ -1.03756940e+00   1.36477947e+00  -2.97972322e-01  -6.34467900e-01
    6.88855648e-01  -8.31432045e-01   3.89269620e-01  -4.20499504e-01
    2.11190626e-01   4.67564106e-01]
 [ -1.59488595e+00  -1.64029634e+00  -3.09015930e-01   1.03938691e-01
    2.71607220e-01  -7.62132883e-01  -1.17527950e+00   1.11945140e+00
   -7.51719713e-01   9.42645907e-01]
 [ -1.41446188e-01  -7.91021466e-01  -3.17593098e-01  -7.84718573e-01
    1.19512653e+00   8.40842783e-01  -2.42335126e-01   2.73168039e+00
    1.12874246e+00   1.45419765e+00]
 [  2.29915679e-01  -7.35496104e-01   8.15887392e-01   1.05625844e+00
    6.92420840e-01   4.95667309e-01  -4.59112465e-01   7.43640780e-01
    1.26623482e-01   4.10854429e-01]
 [  8.41725647e-01  -1.32803726e+00  -1.43006802e+00   1.95656493e-01
   -9.84610200e-01  -1.19595838e+00   4.48097177e-02   2.15013981e-01
   -1.05896616e+00  -2.80141354e-01]
 [  8.66391808e-02  -4.56284106e-01  -2.44162858e-01   3.25127989e-01
    3.96003902e-01  -3.93125743e-01   1.13353467e+00   8.63166690e-01
   -4.40839380e-01   2.79767998e-03]
 [ -4.17985350e-01  -3.38449925e-01  -1.16090715e+00   5.49209416e-01
    1.11197889e+00  -5.47361195e-01  -6.72118589e-02   4.00958538e-01
   -2.28337333e-01  -3.84080820e-02]
 [  1.63453519e+00  -2.35922784e-01   1.62254557e-01   9.99259472e-01
   -7.20146060e-01   8.55913818e-01   7.22164214e-02   8.73682678e-01
   -1.01036727e+00  -1.28720570e+00]
 [  8.45869303e-01  -9.93708596e-02   8.63415718e-01   7.27165699e-01
   -2.25176835e+00   1.69815123e+00  -1.38324425e-01  -8.46701622e-01
   -1.30769205e+00  -2.02085400e+00]
 [  2.21574217e-01  -1.31616205e-01   2.34076476e+00  -5.09603620e-01
   -9.70674813e-01  -6.29679322e-01   1.65055716e+00  -1.52767360e+00
    1.04477000e+00  -7.62953579e-01]
 [ -5.43960892e-02  -8.57217312e-02   2.16757870e+00   2.14436147e-02
    6.83224857e-01  -1.61335707e-01  -1.48587561e+00  -4.04639363e-01
   -1.25399781e-02  -3.30579281e-01]
 [ -1.28220388e-04  -1.91935003e-02   2.52065241e-01   4.57788296e-09
   -8.93921927e-02  -4.51038070e-02  -7.15817288e-02   6.39731254e-11
   -6.08187821e-03  -4.93589730e-04]
 [ -1.37892042e-20   7.24352051e-26  -4.78790498e-25   2.01143772e-18
    4.89838161e-18  -4.19537669e-17  -2.95477019e-27  -4.66284702e-16
   -1.27014472e-21  -3.72156260e-16]
 [  7.15759273e-15  -1.74899331e-10  -9.06961188e-02   9.10777524e-02
    5.12413666e-14   1.47638260e-04   8.12388188e-16  -5.03411275e-06
    8.39017300e-09   1.18345767e-07]
 [ -1.88991707e-02   8.67124349e-02  -1.06894642e-01   5.90665519e-01
    8.80568661e-03  -3.26343238e-01  -6.46811657e-07  -1.45056561e-01
   -3.52695188e-03  -8.36562812e-02]
 [ -8.47547650e-01   4.72929385e-09   1.96128285e+00   4.38378870e-01
   -6.27624333e-01  -1.27775177e-01  -1.75649643e-01  -3.24631214e-01
    3.94913852e-01  -4.19626921e-01]
 [  1.29094601e+00   7.60647282e-03   9.00469899e-01   1.59163010e+00
   -6.62341654e-01  -4.95762825e-01  -1.28130746e+00  -7.01932490e-01
   -5.79913378e-01   6.27192795e-01]
 [  3.91322762e-01  -4.71280038e-01   7.75429606e-01   9.55845639e-02
    2.87240475e-01  -1.67660072e-01   3.80746752e-01   2.18669131e-01
   -1.18921208e+00   1.12524939e+00]
 [  1.23389256e+00  -1.15946949e+00   7.72933125e-01  -9.75212038e-01
   -5.10898411e-01  -4.26026016e-01   1.22756159e+00   2.11968884e-01
   -5.32777309e-01  -8.11446667e-01]
 [  5.77028506e-02  -7.78030574e-01  -3.85018945e-01  -1.03149760e+00
    1.14772630e+00  -3.39386135e-01   1.20669365e+00   9.85263109e-01
    7.53648937e-01   4.89986181e-01]
 [  1.56506073e+00  -4.38446492e-01  -5.59003875e-02  -4.10851747e-01
    7.98768222e-01  -8.70319366e-01   9.15972888e-01   3.83807838e-01
    1.21571608e-01   7.03146935e-01]
 [ -3.32198620e-01   3.85977089e-01   6.79108083e-01  -2.29598120e-01
    1.37899578e+00  -1.39420610e-02   1.49157584e+00   3.19403648e-01
    6.34735525e-01   6.39424205e-01]
 [  6.29518688e-01  -3.24688911e-01   5.03179848e-01   3.92480463e-01
   -1.08213341e+00  -6.73361346e-02   1.32656193e+00  -3.08619380e-01
    6.12150788e-01  -8.08305740e-02]
 [  1.06576061e+00  -6.01369500e-01   8.49542320e-01  -2.11250544e-01
    6.05272710e-01   7.37098694e-01   1.83830714e+00  -1.89400125e+00
    1.29644975e-01   5.56581259e-01]
 [ -1.16620913e-01  -7.50889838e-01   4.09382164e-01   2.39225388e-01
   -6.92344725e-01  -2.90287465e-01   6.22975051e-01  -1.10655177e+00
    6.75164938e-01  -1.38881290e+00]
 [ -1.95598125e+00   1.26735365e+00   1.77163571e-01   7.18006015e-01
   -3.02463502e-01  -4.88363147e-01  -2.85381228e-01  -8.05533171e-01
    9.14912671e-02  -4.34427977e-01]
 [ -3.56098986e+00   1.12788856e+00   2.10591685e-02  -2.59136438e-01
    2.05365375e-01  -5.85839570e-01   2.52740949e-01  -8.57430577e-01
    2.26489767e-01   8.91534332e-03]
 [ -7.26325452e-01   3.18301946e-01  -2.90655822e-01  -1.54229909e-01
    8.84989083e-01  -7.56953120e-01  -1.01114579e-01  -2.85451442e-01
   -4.80825961e-01  -1.51483074e-01]
 [ -2.25481018e-01  -2.65331298e-01   4.51350272e-01  -7.51064658e-01
    7.66075313e-01  -5.55029750e-01  -7.51570821e-01   3.06846559e-01
   -1.79841220e-01  -5.32750905e-01]
 [ -1.11455983e-03  -1.84747791e+00   9.88745749e-01   3.41737509e-01
    1.24958479e+00  -2.47987900e-02   1.83276147e-01   9.48768631e-02
    1.03659563e-01   5.30155063e-01]
 [  5.03011465e-01  -1.34550023e+00  -3.46579403e-01   3.45988035e-01
   -3.67418379e-01  -6.79322898e-01   7.68080470e-04  -3.63748938e-01
   -6.06618524e-01   3.44532818e-01]
 [  5.28892756e-01  -1.40143323e+00   3.30708534e-01   1.06209302e+00
    2.84218919e-02  -2.85023227e-02   1.32465947e+00   5.57966053e-01
   -1.31029046e+00  -5.72504640e-01]
 [  7.27670610e-01  -5.88762760e-01  -1.19365752e+00  -7.45748162e-01
    3.63154560e-01   9.61463600e-02  -3.36268961e-01  -1.06574111e-01
   -1.33129740e+00   7.33769592e-03]
 [  1.49553260e-02  -4.84753191e-01   2.70711541e+00   8.85513067e-01
    6.69056058e-01   9.71706569e-01  -6.01192005e-02   1.26166797e+00
   -6.81656063e-01  -9.75941122e-01]
 [  7.43198514e-01  -4.60761577e-01  -2.60730162e-02   7.28349984e-01
   -8.73334631e-02   4.56803352e-01  -6.18465006e-01  -7.33338475e-01
   -7.97853172e-01   3.12294841e-01]
 [  2.40630001e-01  -6.67307734e-01   5.20417869e-01   8.31279635e-01
   -1.04267609e+00   8.50999579e-02  -2.39848047e-01  -9.31051731e-01
    5.78304112e-01  -1.53918314e+00]
 [ -5.33204079e-01   1.17307499e-01   1.36918783e+00   2.15591145e+00
   -1.80987000e+00  -6.87281549e-01   8.18836689e-01  -1.20260584e+00
   -1.62104383e-01  -1.58628726e+00]
 [ -4.43899840e-01  -3.14027339e-01   4.18723583e+00  -6.34946406e-01
   -3.66581202e-01  -7.04630971e-01   3.37103158e-01  -1.61222470e+00
   -3.71068388e-01  -7.45772541e-01]
 [ -2.10571975e-01  -1.13761416e-02   3.62544727e+00   1.66168455e-02
   -4.30654258e-01  -3.71682405e-01  -7.92734206e-01  -4.68899161e-01
   -3.14075559e-01  -6.72877729e-02]
 [  3.95754017e-02  -5.74345328e-02   4.91656154e-01  -4.72996220e-08
   -3.62285748e-02  -8.31439644e-02  -2.20613450e-01  -5.14201708e-02
   -1.26320384e-02  -2.14534928e-03]
 [  5.37028978e-36  -2.40622228e-37   4.50564450e-37  -2.88297765e-37
    2.17786041e-37  -7.18520707e-36  -1.38409052e-37  -4.90118689e-37
    3.93837601e-37  -5.99722291e-37]
 [  1.87973868e-07  -2.84076962e-09  -4.87792343e-02   4.89343069e-02
    8.56694316e-12   1.48165445e-05   1.55180591e-10   2.11409969e-07
    3.56268720e-06  -4.38160350e-06]
 [ -1.51361644e-01  -3.41441320e-11   5.72239578e-01   1.65450901e-01
    2.21011445e-01  -4.38403219e-01   1.55539984e-10  -5.11689717e-03
   -6.44825457e-04  -2.69297600e-01]
 [ -5.87504923e-01   6.14090681e-08   1.02839315e+00   2.05770087e+00
   -1.64315557e+00   9.06445563e-01  -3.33021767e-02  -2.39391804e-01
    1.05846383e-01  -7.50557065e-01]
 [  2.06223235e-01  -2.09883740e-03   4.53449428e-01   9.60703671e-01
   -7.64586270e-01   4.39669758e-01  -1.90573025e+00   2.16350853e-01
   -4.21594054e-01  -9.39087749e-01]
 [  2.06853127e+00  -7.71004498e-01   1.10828304e+00   1.21191525e+00
   -1.64888287e+00   8.17013144e-01   1.13966477e+00   8.10430646e-01
   -2.82374829e-01  -3.79682899e-01]
 [  6.08700454e-01  -1.37246597e+00   7.19335854e-01   2.24071473e-01
    2.11784214e-01   1.67066538e+00  -7.62834728e-01  -1.71138096e+00
   -4.27260809e-02  -4.88976777e-01]
 [  1.19598746e+00  -5.28098226e-01   1.08575366e-01  -2.59202480e-01
    4.28620309e-01  -1.11163640e+00   5.02665043e-01  -4.20544386e-01
   -1.44034937e-01  -2.71905094e-01]
 [  8.76973927e-01  -9.40172449e-02   1.06940961e+00  -1.53845817e-01
    1.03164136e+00   2.93816298e-01   7.01884925e-01  -2.35514656e-01
    4.80220944e-01   8.69464576e-01]
 [  3.01036924e-01  -3.51415813e-01  -1.76514924e-01  -1.39723754e+00
    3.28302771e-01  -1.19231319e+00   1.11108935e+00  -7.09850073e-01
    5.88921785e-01  -6.88296080e-01]
 [  1.61741495e+00   5.87251604e-01   1.33738589e+00  -1.53060472e+00
   -4.34919417e-01  -1.01460505e+00   9.84543204e-01  -1.55099380e+00
   -6.34145141e-01  -1.82836995e-01]
 [ -6.52606547e-01  -7.47057736e-01  -3.96913253e-02  -1.27024913e+00
   -2.89876401e-01  -1.68379354e+00   1.00710154e+00  -6.49065614e-01
    1.08279802e-01  -3.58559251e-01]
 [ -5.90121031e-01   2.35778376e-01   1.44558728e+00  -5.68396568e-01
    1.48181364e-01  -1.01473153e+00  -1.24818599e+00   3.89982462e-01
    1.58015303e-02   1.53879538e-01]
 [ -1.37548435e+00   1.21796453e+00   3.91914755e-01  -2.11650684e-01
    1.12055624e-02  -1.02704918e+00   6.91122830e-01   1.52398665e-02
    7.82868862e-01   6.02312908e-02]
 [ -1.50128734e+00   2.66534120e-01   7.33189821e-01  -5.64889669e-01
    1.75686622e+00  -8.61339629e-01   9.62106347e-01   2.47542784e-01
   -1.51033759e-01  -4.16553587e-01]
 [ -1.22311544e+00  -2.01995037e-02  -1.03240573e+00  -1.01355457e+00
    4.47902620e-01   6.25551522e-01  -1.07526684e+00  -8.22185814e-01
    1.78214341e-01  -9.92260426e-02]
 [  1.06004715e+00  -1.73769093e+00   5.25742292e-01  -1.77672714e-01
    8.10679793e-01   2.57826418e-01   7.75954127e-01   4.45276320e-01
    6.25438035e-01   1.45134902e+00]
 [ -1.01618588e+00  -8.00724804e-01   1.25512838e-01   4.26646829e-01
    3.91586483e-01   7.14119494e-01   6.05300069e-01   5.91506958e-01
    2.07585737e-01  -4.23850894e-01]
 [ -5.60223520e-01  -1.60448718e+00   2.13722065e-01  -2.90174812e-01
    1.43638766e+00   7.87960827e-01   3.84788811e-01   1.58866525e-01
   -5.06185412e-01  -2.78252624e-02]
 [ -4.30333793e-01   4.27054822e-01   9.40893888e-02   6.71999693e-01
   -2.80868083e-01   3.22475821e-01  -2.00295839e-02  -1.43707782e-01
   -5.50988540e-02  -5.12090027e-01]
 [  7.04309881e-01  -7.56719649e-01  -6.63760722e-01   5.18296599e-01
    1.43661767e-01   3.91784549e-01  -3.84063601e-01   1.45616323e-01
   -2.53595114e-01  -9.98164833e-01]
 [  6.41830033e-03   1.09520726e-01  -1.08400273e+00  -6.22392476e-01
    1.40466034e+00  -7.47570276e-01   5.41327596e-01   1.83243021e-01
   -4.62865531e-01  -5.62296152e-01]
 [ -3.22951004e-04   7.32494295e-02   3.12843531e-01   3.49481791e-01
   -9.24132645e-01   2.51888692e-01   1.09219432e+00   6.45942926e-01
   -2.10258529e-01  -3.76195490e-01]
 [ -2.73015857e-01  -2.02911362e-01  -3.82017761e-01   1.39714575e+00
    6.95071742e-02   7.18920648e-01  -9.90990639e-01  -6.45508230e-01
    6.98914587e-01  -1.44545746e+00]
 [  4.60162878e-01   4.52840656e-01   6.06881082e-01  -8.89574766e-01
   -1.27100039e+00  -9.84438360e-02   1.67236984e+00   7.37518191e-01
    1.44587919e-01  -1.42220604e+00]
 [  1.82599112e-01  -8.11305225e-01   3.62533140e+00  -1.34495628e+00
   -1.08647752e+00  -8.22965205e-01   1.15846324e+00  -2.35843554e-01
   -1.13130331e+00  -5.88660538e-02]
 [ -2.63232589e-02   2.03581914e-01   1.09295368e+00  -4.59812693e-02
   -1.32906526e-01  -1.77705258e-01  -4.11140442e-01  -3.07846051e-02
   -9.38570052e-02  -1.33362226e-02]
 [  3.44366997e-01  -4.37682495e-02   2.98805922e-01  -9.76939009e-06
   -3.48631471e-01  -6.72451733e-03  -6.52222633e-02  -1.56516626e-01
   -8.25555937e-04  -2.68882755e-02]
 [ -7.79108088e-14   3.70086636e-05  -4.10082839e-06  -8.37836051e-05
   -7.43395612e-02  -7.61492025e-09   1.84437909e-09   6.63146302e-02
   -2.16613989e-04   1.40829710e-02]
 [  5.98045773e-08  -1.19672470e-04  -2.62875296e-03   3.14974249e-03
    2.55910449e-11  -1.14653296e-04   8.88983165e-10  -5.20911421e-08
    1.38569623e-04  -1.22261270e-06]
 [ -1.28819659e-01   5.23818002e-08  -3.53180505e-02   1.90160468e-01
    6.97685778e-02  -2.35386088e-01  -4.31807340e-10   2.57733971e-01
    9.84637736e-05  -1.13420628e-01]
 [ -9.85860467e-01   6.40071818e-08   6.35255039e-01   1.93256176e+00
   -2.73889184e-01   7.42852986e-01   1.97640702e-01   3.03383078e-02
   -5.74056864e-01  -9.23304439e-01]
 [  2.20955819e-01  -1.51012152e-01   1.61179650e+00   3.27395141e-01
    1.18095003e-01   7.24535167e-01  -7.26293325e-01  -3.37393105e-01
   -8.18574965e-01  -3.06355834e-01]
 [ -1.22221541e+00  -7.55417943e-01   1.06458187e+00   4.33538139e-01
    1.13818789e+00   8.12447727e-01  -1.34450734e+00   5.70561945e-01
    3.24501604e-01  -1.83102751e+00]
 [  5.04457951e-01  -1.99580002e+00   7.31779337e-01   1.76417857e-01
   -5.97763777e-01   1.33544827e+00   4.95422065e-01  -8.77050757e-01
   -3.15596536e-03   2.43049115e-02]
 [ -8.19200635e-01  -1.11028278e+00   1.01449347e+00  -7.84746706e-01
   -8.74101877e-01  -1.08291674e+00   5.28557122e-01  -1.16683042e+00
    1.05061904e-02  -5.51821649e-01]
 [  8.68593276e-01  -1.15499906e-01  -5.04448712e-01   9.27293241e-01
    6.23266697e-01   6.80307150e-02   1.05287969e+00  -3.18594158e-01
    2.12530956e-01   5.98134220e-01]
 [  1.05274630e+00   2.70079821e-02  -4.31143165e-01  -2.02001643e+00
    1.88248113e-01   1.09602056e-01   3.90202224e-01  -1.58165708e-01
    6.25015125e-02  -1.31026149e+00]
 [  1.12162566e+00  -1.04684758e+00   5.76418996e-01  -1.46855772e-01
   -1.27703023e+00  -3.27149123e-01  -4.86270599e-02  -1.45686579e+00
    5.13121486e-01   1.12294769e+00]
 [  4.56419200e-01  -5.14723480e-01  -1.92176208e-01  -8.95251811e-01
    3.89222771e-01   7.31817961e-01   1.30295408e+00  -2.21552134e-01
    6.80695415e-01   3.58202189e-01]
 [ -4.73973125e-01  -3.63347590e-01   1.04173827e+00  -1.53813732e+00
    8.81520331e-01  -9.38229412e-02   2.11544180e+00  -6.78120106e-02
    1.01196933e+00  -2.34070227e-01]
 [ -1.18042803e+00  -1.22504076e-03  -1.45267770e-01  -2.40281463e-01
    5.52920341e-01   1.72513694e-01   1.22674835e+00   1.65860057e-01
   -2.98681498e-01  -2.68791974e-01]
 [ -1.64615953e+00   1.03933573e+00   8.74593198e-01  -7.07974911e-01
    5.13315320e-01   1.37819901e-01  -5.58179975e-01  -3.03253204e-01
   -1.03020616e-01   5.50292134e-01]
 [ -4.88782704e-01  -7.88302660e-01   2.39007473e-01  -4.76709425e-01
    1.76648125e-01  -4.94919479e-01   4.38487947e-01   2.84808069e-01
   -1.65127411e-01   9.58930850e-01]
 [  3.92240942e-01  -3.07691959e-03   6.29507542e-01   1.64455545e+00
    2.53939939e+00   1.47813009e-02   9.28921580e-01  -2.28832141e-01
   -4.14540201e-01   4.99481767e-01]
 [  1.21828020e+00   2.38476545e-01   2.92018831e-01   1.01036465e+00
   -6.64720237e-01   5.15531719e-01  -4.97280955e-02  -1.84646640e-02
    2.09719650e-02   3.64337325e-01]
 [ -1.17396288e-01   3.98177475e-01  -2.73378342e-02  -2.49601126e-01
    2.88117044e-02  -6.24636114e-01   1.02045166e+00  -4.09717441e-01
   -1.33949745e+00  -2.84687907e-01]
 [ -1.22527218e+00  -6.84793741e-02   8.04026350e-02   4.33157474e-01
   -1.40073788e+00   1.74609587e-01   4.29104008e-02  -3.61658245e-01
    2.09315225e-01  -3.70014124e-02]
 [  1.12386599e-01   8.06775630e-01   7.75266707e-01   2.24514633e-01
   -1.62185907e-01   4.56091702e-01   1.68052983e+00   5.06961703e-01
    1.42461014e+00   9.80061293e-01]
 [ -4.97653037e-01   4.50710922e-01   1.11419702e+00   1.16209757e+00
    1.29410672e+00  -1.14126191e-01  -7.91179121e-01  -4.83966231e-01
   -9.10175562e-01   2.59411812e-01]
 [  1.66235662e+00  -3.19166541e-01   6.46345377e-01   9.95430350e-01
   -1.32215786e+00   2.52917111e-01  -5.95220864e-01   5.05269282e-02
   -3.42577606e-01  -2.81746030e-01]
 [ -9.65052366e-01   3.25182050e-01   8.00906777e-01   5.08345425e-01
   -2.63908237e-01  -4.58467573e-01   7.53813386e-01  -2.10716391e+00
    3.41496170e-01  -1.74594831e+00]
 [  2.07882091e-01   6.20972812e-01   2.58326340e+00  -1.16804385e+00
   -7.37963557e-01   6.60449862e-01  -1.87784359e-01  -1.85176241e+00
   -7.27079213e-01  -1.39535713e+00]
 [ -5.64025939e-02   4.30005938e-01   2.47374749e+00  -6.15568995e-01
   -1.61565638e+00  -3.68467629e-01   1.25018430e+00  -1.08641893e-01
   -5.55057943e-01  -7.79114068e-02]
 [ -5.79067506e-02   4.36162978e-01  -2.53875703e-01  -7.59906545e-02
   -1.83190294e-02  -5.05869985e-02  -1.86881647e-01   4.46065366e-01
   -3.87382917e-02  -8.60788021e-03]
 [ -4.71401736e-02  -8.12891506e-15   1.06754303e-01  -3.15106320e-07
   -2.34126855e-19  -3.43579762e-02  -5.77997044e-03   8.27315767e-16
   -7.05442107e-13   5.26584554e-16]
 [  1.25315970e-16   2.02304334e-04  -1.11736244e-05  -7.52491860e-06
   -4.69135217e-11   5.22662746e-10   1.19027455e-08   9.14033990e-07
    1.00219157e-04  -2.30890884e-09]
 [  5.96342459e-02   1.10143162e-02  -3.29388119e-02  -3.30052222e-04
   -3.16412181e-01  -1.83429016e-04  -1.21424338e-04   3.28812063e-01
   -8.59050080e-03  -5.98822087e-02]
 [  6.59898296e-03   4.51200409e-03   1.88921113e-02   8.22103545e-02
    1.11041951e-03  -1.14564590e-01  -1.96862267e-03   2.61713266e-01
   -7.46803184e-04  -1.33298203e-01]
 [ -8.15034270e-01   3.64587782e-03   3.71302739e-02   1.59723353e+00
    1.08652735e+00   7.41554201e-01  -1.47689298e-01  -1.08957775e-01
   -6.94419563e-01  -4.48299587e-01]
 [  7.72164881e-01  -5.13677299e-01   9.91505623e-01   5.83959103e-01
   -3.57948273e-01   1.45379388e+00   2.94073701e-01   5.81524909e-01
   -7.97503412e-01  -1.12148154e+00]
 [  4.04497057e-01  -1.82260585e+00   5.97933352e-01   1.38834989e+00
    9.04563904e-01   8.71911407e-01  -4.54871863e-01  -4.76442039e-01
    1.79241371e+00  -7.50024855e-01]
 [  9.35701966e-01   1.25868861e-02   3.74769360e-01   1.36967504e+00
    1.87607601e-01   7.76720285e-01   7.77502179e-01  -1.02101171e+00
    2.57120222e-01   1.13971472e+00]
 [  3.50477606e-01   4.33216244e-01  -6.57444596e-02  -8.91920626e-01
    6.05701916e-02   5.16937852e-01  -3.69705588e-01  -1.36250401e+00
   -9.27607417e-01  -1.51351064e-01]
 [  6.53672695e-01   1.03033161e+00   1.22352791e+00  -5.16696870e-01
    3.72106582e-01   1.31089783e+00  -2.63184935e-01  -1.88059732e-01
    7.93973625e-01  -5.22523701e-01]
 [  1.37706387e+00  -8.17646980e-02   7.92979717e-01   4.62748200e-01
   -9.86685455e-01  -5.71343541e-01   9.69199479e-01  -3.93251628e-01
    1.95286050e-01  -2.94762880e-01]
 [ -6.80460811e-01   6.09552503e-01   6.43549085e-01  -3.29104751e-01
   -8.91444504e-01   2.78656960e-01   6.42957866e-01  -1.12033284e+00
    1.40835369e+00   2.69227415e-01]
 [  3.43517244e-01  -1.82291955e-01  -3.24558049e-01  -5.48627265e-02
   -7.32055962e-01  -6.21331036e-01   1.19139695e+00  -4.57421005e-01
   -1.27399683e+00  -1.51344609e+00]
 [  2.61295229e-01   2.78428525e-01   1.50184715e+00  -2.75917619e-01
   -9.63962853e-01   2.11577073e-01   1.07249737e+00  -9.88065779e-01
    2.69370645e-01  -5.47440231e-01]
 [  7.40045547e-01   1.91474892e-02   7.12584853e-01  -2.96043545e-01
   -4.85212415e-01  -5.80581389e-02   1.04481268e+00  -4.27366555e-01
    1.04419164e-01  -9.26573634e-01]
 [ -1.35338736e+00  -6.08274460e-01   1.04537807e-01   1.21509731e+00
    1.99066147e-01   2.18795985e-01   1.44661343e+00   5.97262740e-01
   -3.56450677e-01  -6.85077310e-01]
 [  6.63775861e-01   1.34449816e+00   1.09899569e+00   1.13994837e+00
   -2.71947175e-01   3.73352319e-01   8.87291253e-01  -3.26214343e-01
    2.11175680e-01  -1.18549562e+00]
 [ -1.25670516e+00   5.24820626e-01   1.32714915e+00   4.94256109e-01
   -7.90067017e-01   5.59626341e-01   8.12479913e-01   5.43313682e-01
    8.43266428e-01  -8.37708652e-01]
 [  3.00887495e-01  -1.23472735e-01   1.36358893e+00   1.36751008e+00
   -7.67537475e-01   5.83154678e-01   7.85496831e-01  -6.58880532e-01
    6.80372357e-01  -1.19791694e-01]
 [  6.67597950e-02   4.00887936e-01   6.69855833e-01   8.05908382e-01
   -1.12764919e-02  -3.09116513e-01   6.42338097e-01  -1.82175353e-01
    1.34222209e+00  -4.80145782e-01]
 [ -2.21489102e-01   8.24473560e-01   1.23454154e-01   1.83238819e-01
    6.16997063e-01  -2.72918016e-01  -7.95475364e-01  -2.89101526e-02
   -3.55568528e-01   6.23415112e-01]
 [  9.94661391e-01   3.94004554e-01   1.44571280e+00   1.60822618e+00
    1.80717659e+00   1.99159455e+00   9.64622498e-01   4.97579217e-01
    8.60667348e-01   6.54345095e-01]
 [ -6.80545866e-02   3.45050663e-01   9.23314840e-02   4.53392789e-02
   -1.20214713e+00   8.32410157e-03   1.46440279e+00  -6.04793131e-01
   -1.23651817e-01  -4.62737530e-01]
 [  1.12372994e+00   5.07690430e-01   4.01399314e-01   3.07874352e-01
   -1.64074910e+00   4.12025213e-01   8.42203200e-01  -1.69108236e+00
    3.87776673e-01  -1.67757106e+00]
 [  7.37540007e-01   2.08973184e-01   1.39139175e+00   4.98689473e-01
   -1.44226015e+00   1.21885335e+00   1.12248492e+00  -2.40809369e+00
    1.98019218e+00  -1.00780857e+00]
 [  2.14175537e-01   1.06179643e+00   6.82533920e-01  -6.19041502e-01
   -1.34429872e+00   1.23249483e+00  -3.49750936e-01  -1.99461222e-01
   -2.42396861e-01  -4.74573076e-01]
 [ -3.80099744e-01   1.10580766e+00   2.56562114e+00  -1.58257544e-01
   -1.04981899e+00   3.27670991e-01  -4.33385521e-01  -3.05541575e-01
   -1.01629770e+00  -1.24154873e-01]
 [ -2.53874306e-02   4.47772980e-01   8.04531157e-01  -2.43599317e-03
    5.14530693e-04  -4.37389791e-01  -4.07730967e-01  -1.18611497e-03
   -3.81610692e-02  -8.67970437e-02]
 [ -4.71197563e-04  -2.18223096e-04   3.59774865e-02   6.71661473e-05
   -9.81751391e-09  -3.21200043e-02  -1.86297309e-03   1.01193370e-06
   -1.61804146e-05  -8.15432415e-08]
 [  5.86909804e-37   3.55462920e-37   4.49880975e-37  -5.83453938e-36
   -4.17287849e-37  -2.00255909e-37   1.47110734e-37  -1.87164328e-37
   -3.62935136e-37  -7.69502537e-37]
 [  1.46195889e-01   1.74196790e-09  -5.01391441e-02  -5.39428111e-05
    1.28630995e-11  -1.10286346e-05  -6.58887206e-04   2.11701263e-06
   -5.53888385e-04  -6.45906106e-02]
 [ -4.38243970e-02   7.76008528e-04   4.64338422e-01  -1.91142447e-02
    1.24611713e-01  -5.95181845e-02  -5.18476591e-04  -3.65776755e-02
   -2.45667212e-02  -1.76989749e-01]
 [ -1.30557984e-01  -1.30945239e-02   7.61304617e-01   1.29270053e+00
    4.91450310e-01   1.07913923e+00  -1.32207692e-01  -6.48571253e-01
   -3.90813023e-01  -6.32880330e-01]
 [  1.13499612e-01  -2.22120628e-01   3.15630108e-01   1.55014217e+00
   -6.94795251e-02  -5.25137126e-01  -1.16162993e-01  -1.24549282e+00
